digraph Tree {
node [shape=box, style="filled", color="black"] ;
0 [label="Candidate.relocate.actual_No <= 0.5\nentropy = 0.99\nsamples = 9096\nvalue = [5087, 4009]", fillcolor="#f9e4d5"] ;
1 [label="entropy = 0.0\nsamples = 904\nvalue = [904, 0]", fillcolor="#e58139"] ;
0 -> 1 [labeldistance=2.5, labelangle=45, headlabel="True"] ;
2 [label="Notice.period <= 37.5\nentropy = 1.0\nsamples = 8192\nvalue = [4183, 4009]", fillcolor="#fefaf7"] ;
0 -> 2 [labeldistance=2.5, labelangle=-45, headlabel="False"] ;
3 [label="Duration.to.accept.offer <= 70.5\nentropy = 0.97\nsamples = 4901\nvalue = [2949, 1952]", fillcolor="#f6d4bc"] ;
2 -> 3 ;
4 [label="Candidate.Source_Employee Referral <= 0.5\nentropy = 0.958\nsamples = 4676\nvalue = [2902, 1774]", fillcolor="#f5ceb2"] ;
3 -> 4 ;
5 [label="Duration.to.accept.offer <= 1.5\nentropy = 0.975\nsamples = 3926\nvalue = [2329, 1597]", fillcolor="#f7d7c1"] ;
4 -> 5 ;
6 [label="Candidate.Ref <= 2316326.5\nentropy = 0.872\nsamples = 714\nvalue = [505, 209]", fillcolor="#f0b58b"] ;
5 -> 6 ;
7 [label="Age <= 40.0\nentropy = 0.204\nsamples = 94\nvalue = [91, 3]", fillcolor="#e68540"] ;
6 -> 7 ;
8 [label="entropy = 0.0\nsamples = 90\nvalue = [90, 0]", fillcolor="#e58139"] ;
7 -> 8 ;
9 [label="Percent.difference.CTC <= -8.21\nentropy = 0.811\nsamples = 4\nvalue = [1, 3]", fillcolor="#7bbeee"] ;
7 -> 9 ;
10 [label="entropy = 0.0\nsamples = 3\nvalue = [0, 3]", fillcolor="#399de5"] ;
9 -> 10 ;
11 [label="entropy = 0.0\nsamples = 1\nvalue = [1, 0]", fillcolor="#e58139"] ;
9 -> 11 ;
12 [label="Location_Noida <= 0.5\nentropy = 0.917\nsamples = 620\nvalue = [414, 206]", fillcolor="#f2c09c"] ;
6 -> 12 ;
13 [label="Age <= 26.5\nentropy = 0.978\nsamples = 415\nvalue = [244, 171]", fillcolor="#f7d9c4"] ;
12 -> 13 ;
14 [label="Percent.hike.offered.in.CTC <= 70.835\nentropy = 0.961\nsamples = 117\nvalue = [45, 72]", fillcolor="#b5daf5"] ;
13 -> 14 ;
15 [label="Percent.difference.CTC <= -20.755\nentropy = 0.924\nsamples = 109\nvalue = [37, 72]", fillcolor="#9fcff2"] ;
14 -> 15 ;
16 [label="Percent.hike.offered.in.CTC <= -26.0\nentropy = 0.65\nsamples = 6\nvalue = [5, 1]", fillcolor="#ea9a61"] ;
15 -> 16 ;
17 [label="entropy = 0.0\nsamples = 1\nvalue = [0, 1]", fillcolor="#399de5"] ;
16 -> 17 ;
18 [label="entropy = 0.0\nsamples = 5\nvalue = [5, 0]", fillcolor="#e58139"] ;
16 -> 18 ;
19 [label="Pecent.hike.expected.in.CTC <= 32.115\nentropy = 0.894\nsamples = 103\nvalue = [32, 71]", fillcolor="#92c9f1"] ;
15 -> 19 ;
20 [label="Candidate.Ref <= 2932365.5\nentropy = 0.999\nsamples = 27\nvalue = [14, 13]", fillcolor="#fdf6f1"] ;
19 -> 20 ;
21 [label="Percent.hike.offered.in.CTC <= 41.745\nentropy = 0.391\nsamples = 13\nvalue = [12, 1]", fillcolor="#e78c49"] ;
20 -> 21 ;
22 [label="entropy = 0.0\nsamples = 11\nvalue = [11, 0]", fillcolor="#e58139"] ;
21 -> 22 ;
23 [label="Location_Bangalore <= 0.5\nentropy = 1.0\nsamples = 2\nvalue = [1, 1]", fillcolor="#ffffff"] ;
21 -> 23 ;
24 [label="entropy = 0.0\nsamples = 1\nvalue = [1, 0]", fillcolor="#e58139"] ;
23 -> 24 ;
25 [label="entropy = 0.0\nsamples = 1\nvalue = [0, 1]", fillcolor="#399de5"] ;
23 -> 25 ;
26 [label="Pecent.hike.expected.in.CTC <= 9.465\nentropy = 0.592\nsamples = 14\nvalue = [2, 12]", fillcolor="#5aade9"] ;
20 -> 26 ;
27 [label="entropy = 0.0\nsamples = 11\nvalue = [0, 11]", fillcolor="#399de5"] ;
26 -> 27 ;
28 [label="Percent.difference.CTC <= -2.78\nentropy = 0.918\nsamples = 3\nvalue = [2, 1]", fillcolor="#f2c09c"] ;
26 -> 28 ;
29 [label="entropy = 0.0\nsamples = 1\nvalue = [0, 1]", fillcolor="#399de5"] ;
28 -> 29 ;
30 [label="entropy = 0.0\nsamples = 2\nvalue = [2, 0]", fillcolor="#e58139"] ;
28 -> 30 ;
31 [label="Age <= 22.5\nentropy = 0.79\nsamples = 76\nvalue = [18, 58]", fillcolor="#76bbed"] ;
19 -> 31 ;
32 [label="entropy = 0.0\nsamples = 2\nvalue = [2, 0]", fillcolor="#e58139"] ;
31 -> 32 ;
33 [label="Candidate.Ref <= 3250238.5\nentropy = 0.753\nsamples = 74\nvalue = [16, 58]", fillcolor="#70b8ec"] ;
31 -> 33 ;
34 [label="Percent.difference.CTC <= -4.855\nentropy = 0.672\nsamples = 68\nvalue = [12, 56]", fillcolor="#63b2eb"] ;
33 -> 34 ;
35 [label="entropy = 0.0\nsamples = 19\nvalue = [0, 19]", fillcolor="#399de5"] ;
34 -> 35 ;
36 [label="Pecent.hike.expected.in.CTC <= 51.39\nentropy = 0.803\nsamples = 49\nvalue = [12, 37]", fillcolor="#79bded"] ;
34 -> 36 ;
37 [label="Location_Mumbai <= 0.5\nentropy = 0.713\nsamples = 46\nvalue = [9, 37]", fillcolor="#69b5eb"] ;
36 -> 37 ;
38 [label="Rex.in.Yrs <= 3.5\nentropy = 0.632\nsamples = 44\nvalue = [7, 37]", fillcolor="#5eb0ea"] ;
37 -> 38 ;
39 [label="LOB_INFRA <= 0.5\nentropy = 0.734\nsamples = 34\nvalue = [7, 27]", fillcolor="#6cb6ec"] ;
38 -> 39 ;
40 [label="Percent.difference.CTC <= 7.5\nentropy = 0.918\nsamples = 3\nvalue = [2, 1]", fillcolor="#f2c09c"] ;
39 -> 40 ;
41 [label="entropy = 0.0\nsamples = 2\nvalue = [2, 0]", fillcolor="#e58139"] ;
40 -> 41 ;
42 [label="entropy = 0.0\nsamples = 1\nvalue = [0, 1]", fillcolor="#399de5"] ;
40 -> 42 ;
43 [label="Candidate.Source_Agency <= 0.5\nentropy = 0.637\nsamples = 31\nvalue = [5, 26]", fillcolor="#5fb0ea"] ;
39 -> 43 ;
44 [label="Age <= 23.5\nentropy = 0.567\nsamples = 30\nvalue = [4, 26]", fillcolor="#57ace9"] ;
43 -> 44 ;
45 [label="Candidate.Ref <= 2364835.5\nentropy = 0.787\nsamples = 17\nvalue = [4, 13]", fillcolor="#76bbed"] ;
44 -> 45 ;
46 [label="entropy = 0.0\nsamples = 9\nvalue = [0, 9]", fillcolor="#399de5"] ;
45 -> 46 ;
47 [label="Candidate.Ref <= 2364932.0\nentropy = 1.0\nsamples = 8\nvalue = [4, 4]", fillcolor="#ffffff"] ;
45 -> 47 ;
48 [label="Candidate.Ref <= 2364838.5\nentropy = 0.811\nsamples = 4\nvalue = [1, 3]", fillcolor="#7bbeee"] ;
47 -> 48 ;
49 [label="entropy = 0.0\nsamples = 1\nvalue = [1, 0]", fillcolor="#e58139"] ;
48 -> 49 ;
50 [label="entropy = 0.0\nsamples = 3\nvalue = [0, 3]", fillcolor="#399de5"] ;
48 -> 50 ;
51 [label="Candidate.Ref <= 2365027.0\nentropy = 0.811\nsamples = 4\nvalue = [3, 1]", fillcolor="#eeab7b"] ;
47 -> 51 ;
52 [label="entropy = 0.0\nsamples = 2\nvalue = [2, 0]", fillcolor="#e58139"] ;
51 -> 52 ;
53 [label="Offered.band_E1 <= 0.5\nentropy = 1.0\nsamples = 2\nvalue = [1, 1]", fillcolor="#ffffff"] ;
51 -> 53 ;
54 [label="entropy = 0.0\nsamples = 1\nvalue = [0, 1]", fillcolor="#399de5"] ;
53 -> 54 ;
55 [label="entropy = 0.0\nsamples = 1\nvalue = [1, 0]", fillcolor="#e58139"] ;
53 -> 55 ;
56 [label="entropy = 0.0\nsamples = 13\nvalue = [0, 13]", fillcolor="#399de5"] ;
44 -> 56 ;
57 [label="entropy = 0.0\nsamples = 1\nvalue = [1, 0]", fillcolor="#e58139"] ;
43 -> 57 ;
58 [label="entropy = 0.0\nsamples = 10\nvalue = [0, 10]", fillcolor="#399de5"] ;
38 -> 58 ;
59 [label="entropy = 0.0\nsamples = 2\nvalue = [2, 0]", fillcolor="#e58139"] ;
37 -> 59 ;
60 [label="entropy = 0.0\nsamples = 3\nvalue = [3, 0]", fillcolor="#e58139"] ;
36 -> 60 ;
61 [label="Offered.band_E1 <= 0.5\nentropy = 0.918\nsamples = 6\nvalue = [4, 2]", fillcolor="#f2c09c"] ;
33 -> 61 ;
62 [label="entropy = 0.0\nsamples = 2\nvalue = [0, 2]", fillcolor="#399de5"] ;
61 -> 62 ;
63 [label="entropy = 0.0\nsamples = 4\nvalue = [4, 0]", fillcolor="#e58139"] ;
61 -> 63 ;
64 [label="entropy = 0.0\nsamples = 8\nvalue = [8, 0]", fillcolor="#e58139"] ;
14 -> 64 ;
65 [label="Candidate.Ref <= 2611723.5\nentropy = 0.917\nsamples = 298\nvalue = [199, 99]", fillcolor="#f2c09c"] ;
13 -> 65 ;
66 [label="Joining.Bonus_No <= 0.5\nentropy = 0.622\nsamples = 129\nvalue = [109, 20]", fillcolor="#ea985d"] ;
65 -> 66 ;
67 [label="entropy = 0.0\nsamples = 4\nvalue = [0, 4]", fillcolor="#399de5"] ;
66 -> 67 ;
68 [label="Candidate.Ref <= 2548417.0\nentropy = 0.552\nsamples = 125\nvalue = [109, 16]", fillcolor="#e99356"] ;
66 -> 68 ;
69 [label="Candidate.Ref <= 2538011.5\nentropy = 0.627\nsamples = 102\nvalue = [86, 16]", fillcolor="#ea985e"] ;
68 -> 69 ;
70 [label="Percent.difference.CTC <= -1.25\nentropy = 0.514\nsamples = 96\nvalue = [85, 11]", fillcolor="#e89153"] ;
69 -> 70 ;
71 [label="Percent.difference.CTC <= -4.95\nentropy = 0.801\nsamples = 41\nvalue = [31, 10]", fillcolor="#edaa79"] ;
70 -> 71 ;
72 [label="Percent.difference.CTC <= -12.615\nentropy = 0.391\nsamples = 26\nvalue = [24, 2]", fillcolor="#e78c49"] ;
71 -> 72 ;
73 [label="Pecent.hike.expected.in.CTC <= 58.845\nentropy = 0.592\nsamples = 14\nvalue = [12, 2]", fillcolor="#e9965a"] ;
72 -> 73 ;
74 [label="Pecent.hike.expected.in.CTC <= 39.065\nentropy = 0.811\nsamples = 8\nvalue = [6, 2]", fillcolor="#eeab7b"] ;
73 -> 74 ;
75 [label="entropy = 0.0\nsamples = 4\nvalue = [4, 0]", fillcolor="#e58139"] ;
74 -> 75 ;
76 [label="Age <= 27.5\nentropy = 1.0\nsamples = 4\nvalue = [2, 2]", fillcolor="#ffffff"] ;
74 -> 76 ;
77 [label="entropy = 0.0\nsamples = 2\nvalue = [2, 0]", fillcolor="#e58139"] ;
76 -> 77 ;
78 [label="entropy = 0.0\nsamples = 2\nvalue = [0, 2]", fillcolor="#399de5"] ;
76 -> 78 ;
79 [label="entropy = 0.0\nsamples = 6\nvalue = [6, 0]", fillcolor="#e58139"] ;
73 -> 79 ;
80 [label="entropy = 0.0\nsamples = 12\nvalue = [12, 0]", fillcolor="#e58139"] ;
72 -> 80 ;
81 [label="Location_Chennai <= 0.5\nentropy = 0.997\nsamples = 15\nvalue = [7, 8]", fillcolor="#e6f3fc"] ;
71 -> 81 ;
82 [label="entropy = 0.0\nsamples = 5\nvalue = [5, 0]", fillcolor="#e58139"] ;
81 -> 82 ;
83 [label="Duration.to.accept.offer <= 0.5\nentropy = 0.722\nsamples = 10\nvalue = [2, 8]", fillcolor="#6ab6ec"] ;
81 -> 83 ;
84 [label="Candidate.Ref <= 2377617.5\nentropy = 0.503\nsamples = 9\nvalue = [1, 8]", fillcolor="#52a9e8"] ;
83 -> 84 ;
85 [label="Rex.in.Yrs <= 4.0\nentropy = 0.918\nsamples = 3\nvalue = [1, 2]", fillcolor="#9ccef2"] ;
84 -> 85 ;
86 [label="entropy = 0.0\nsamples = 1\nvalue = [1, 0]", fillcolor="#e58139"] ;
85 -> 86 ;
87 [label="entropy = 0.0\nsamples = 2\nvalue = [0, 2]", fillcolor="#399de5"] ;
85 -> 87 ;
88 [label="entropy = 0.0\nsamples = 6\nvalue = [0, 6]", fillcolor="#399de5"] ;
84 -> 88 ;
89 [label="entropy = 0.0\nsamples = 1\nvalue = [1, 0]", fillcolor="#e58139"] ;
83 -> 89 ;
90 [label="Location_Hyderabad <= 0.5\nentropy = 0.131\nsamples = 55\nvalue = [54, 1]", fillcolor="#e5833d"] ;
70 -> 90 ;
91 [label="entropy = 0.0\nsamples = 52\nvalue = [52, 0]", fillcolor="#e58139"] ;
90 -> 91 ;
92 [label="Age <= 33.5\nentropy = 0.918\nsamples = 3\nvalue = [2, 1]", fillcolor="#f2c09c"] ;
90 -> 92 ;
93 [label="entropy = 0.0\nsamples = 1\nvalue = [0, 1]", fillcolor="#399de5"] ;
92 -> 93 ;
94 [label="entropy = 0.0\nsamples = 2\nvalue = [2, 0]", fillcolor="#e58139"] ;
92 -> 94 ;
95 [label="LOB_ETS <= 0.5\nentropy = 0.65\nsamples = 6\nvalue = [1, 5]", fillcolor="#61b1ea"] ;
69 -> 95 ;
96 [label="entropy = 0.0\nsamples = 5\nvalue = [0, 5]", fillcolor="#399de5"] ;
95 -> 96 ;
97 [label="entropy = 0.0\nsamples = 1\nvalue = [1, 0]", fillcolor="#e58139"] ;
95 -> 97 ;
98 [label="entropy = 0.0\nsamples = 23\nvalue = [23, 0]", fillcolor="#e58139"] ;
68 -> 98 ;
99 [label="Percent.difference.CTC <= 2.875\nentropy = 0.997\nsamples = 169\nvalue = [90, 79]", fillcolor="#fcf0e7"] ;
65 -> 99 ;
100 [label="Candidate.Ref <= 3383024.0\nentropy = 0.953\nsamples = 118\nvalue = [74, 44]", fillcolor="#f4ccaf"] ;
99 -> 100 ;
101 [label="Offered.band_E1 <= 0.5\nentropy = 0.998\nsamples = 68\nvalue = [32, 36]", fillcolor="#e9f4fc"] ;
100 -> 101 ;
102 [label="Candidate.Ref <= 3344964.5\nentropy = 0.742\nsamples = 19\nvalue = [15, 4]", fillcolor="#eca36e"] ;
101 -> 102 ;
103 [label="Percent.hike.offered.in.CTC <= -19.645\nentropy = 0.523\nsamples = 17\nvalue = [15, 2]", fillcolor="#e89253"] ;
102 -> 103 ;
104 [label="entropy = 0.0\nsamples = 1\nvalue = [0, 1]", fillcolor="#399de5"] ;
103 -> 104 ;
105 [label="Age <= 27.5\nentropy = 0.337\nsamples = 16\nvalue = [15, 1]", fillcolor="#e78946"] ;
103 -> 105 ;
106 [label="entropy = 0.0\nsamples = 1\nvalue = [0, 1]", fillcolor="#399de5"] ;
105 -> 106 ;
107 [label="entropy = 0.0\nsamples = 15\nvalue = [15, 0]", fillcolor="#e58139"] ;
105 -> 107 ;
108 [label="entropy = 0.0\nsamples = 2\nvalue = [0, 2]", fillcolor="#399de5"] ;
102 -> 108 ;
109 [label="Pecent.hike.expected.in.CTC <= 9.135\nentropy = 0.931\nsamples = 49\nvalue = [17, 32]", fillcolor="#a2d1f3"] ;
101 -> 109 ;
110 [label="entropy = 0.0\nsamples = 3\nvalue = [3, 0]", fillcolor="#e58139"] ;
109 -> 110 ;
111 [label="Percent.hike.offered.in.CTC <= 25.83\nentropy = 0.887\nsamples = 46\nvalue = [14, 32]", fillcolor="#90c8f0"] ;
109 -> 111 ;
112 [label="LOB_AXON <= 0.5\nentropy = 0.544\nsamples = 24\nvalue = [3, 21]", fillcolor="#55abe9"] ;
111 -> 112 ;
113 [label="Age <= 27.5\nentropy = 0.267\nsamples = 22\nvalue = [1, 21]", fillcolor="#42a2e6"] ;
112 -> 113 ;
114 [label="entropy = 0.0\nsamples = 1\nvalue = [1, 0]", fillcolor="#e58139"] ;
113 -> 114 ;
115 [label="entropy = 0.0\nsamples = 21\nvalue = [0, 21]", fillcolor="#399de5"] ;
113 -> 115 ;
116 [label="entropy = 0.0\nsamples = 2\nvalue = [2, 0]", fillcolor="#e58139"] ;
112 -> 116 ;
117 [label="Rex.in.Yrs <= 2.5\nentropy = 1.0\nsamples = 22\nvalue = [11, 11]", fillcolor="#ffffff"] ;
111 -> 117 ;
118 [label="entropy = 0.0\nsamples = 5\nvalue = [0, 5]", fillcolor="#399de5"] ;
117 -> 118 ;
119 [label="Percent.hike.offered.in.CTC <= 45.125\nentropy = 0.937\nsamples = 17\nvalue = [11, 6]", fillcolor="#f3c6a5"] ;
117 -> 119 ;
120 [label="Candidate.Ref <= 2817023.0\nentropy = 1.0\nsamples = 12\nvalue = [6, 6]", fillcolor="#ffffff"] ;
119 -> 120 ;
121 [label="entropy = 0.0\nsamples = 3\nvalue = [3, 0]", fillcolor="#e58139"] ;
120 -> 121 ;
122 [label="Pecent.hike.expected.in.CTC <= 30.475\nentropy = 0.918\nsamples = 9\nvalue = [3, 6]", fillcolor="#9ccef2"] ;
120 -> 122 ;
123 [label="entropy = 0.0\nsamples = 3\nvalue = [0, 3]", fillcolor="#399de5"] ;
122 -> 123 ;
124 [label="Candidate.Source_Direct <= 0.5\nentropy = 1.0\nsamples = 6\nvalue = [3, 3]", fillcolor="#ffffff"] ;
122 -> 124 ;
125 [label="entropy = 0.0\nsamples = 2\nvalue = [0, 2]", fillcolor="#399de5"] ;
124 -> 125 ;
126 [label="Candidate.Ref <= 3025210.5\nentropy = 0.811\nsamples = 4\nvalue = [3, 1]", fillcolor="#eeab7b"] ;
124 -> 126 ;
127 [label="entropy = 0.0\nsamples = 1\nvalue = [0, 1]", fillcolor="#399de5"] ;
126 -> 127 ;
128 [label="entropy = 0.0\nsamples = 3\nvalue = [3, 0]", fillcolor="#e58139"] ;
126 -> 128 ;
129 [label="entropy = 0.0\nsamples = 5\nvalue = [5, 0]", fillcolor="#e58139"] ;
119 -> 129 ;
130 [label="Candidate.Ref <= 3814578.0\nentropy = 0.634\nsamples = 50\nvalue = [42, 8]", fillcolor="#ea995f"] ;
100 -> 130 ;
131 [label="Percent.hike.offered.in.CTC <= 10.675\nentropy = 0.489\nsamples = 47\nvalue = [42, 5]", fillcolor="#e89051"] ;
130 -> 131 ;
132 [label="Percent.hike.offered.in.CTC <= 7.075\nentropy = 0.874\nsamples = 17\nvalue = [12, 5]", fillcolor="#f0b58b"] ;
131 -> 132 ;
133 [label="Location_Ahmedabad <= 0.5\nentropy = 0.391\nsamples = 13\nvalue = [12, 1]", fillcolor="#e78c49"] ;
132 -> 133 ;
134 [label="entropy = 0.0\nsamples = 12\nvalue = [12, 0]", fillcolor="#e58139"] ;
133 -> 134 ;
135 [label="entropy = 0.0\nsamples = 1\nvalue = [0, 1]", fillcolor="#399de5"] ;
133 -> 135 ;
136 [label="entropy = 0.0\nsamples = 4\nvalue = [0, 4]", fillcolor="#399de5"] ;
132 -> 136 ;
137 [label="entropy = 0.0\nsamples = 30\nvalue = [30, 0]", fillcolor="#e58139"] ;
131 -> 137 ;
138 [label="entropy = 0.0\nsamples = 3\nvalue = [0, 3]", fillcolor="#399de5"] ;
130 -> 138 ;
139 [label="Gender_Female <= 0.5\nentropy = 0.897\nsamples = 51\nvalue = [16, 35]", fillcolor="#94caf1"] ;
99 -> 139 ;
140 [label="Percent.difference.CTC <= 6.78\nentropy = 0.82\nsamples = 47\nvalue = [12, 35]", fillcolor="#7dbfee"] ;
139 -> 140 ;
141 [label="entropy = 0.0\nsamples = 11\nvalue = [0, 11]", fillcolor="#399de5"] ;
140 -> 141 ;
142 [label="Candidate.Ref <= 3611228.0\nentropy = 0.918\nsamples = 36\nvalue = [12, 24]", fillcolor="#9ccef2"] ;
140 -> 142 ;
143 [label="Candidate.Ref <= 3482167.0\nentropy = 0.985\nsamples = 28\nvalue = [12, 16]", fillcolor="#cee6f8"] ;
142 -> 143 ;
144 [label="Candidate.Ref <= 3409896.0\nentropy = 0.943\nsamples = 25\nvalue = [9, 16]", fillcolor="#a8d4f4"] ;
143 -> 144 ;
145 [label="Percent.hike.offered.in.CTC <= 55.0\nentropy = 0.998\nsamples = 19\nvalue = [9, 10]", fillcolor="#ebf5fc"] ;
144 -> 145 ;
146 [label="entropy = 0.0\nsamples = 5\nvalue = [5, 0]", fillcolor="#e58139"] ;
145 -> 146 ;
147 [label="Percent.hike.offered.in.CTC <= 65.835\nentropy = 0.863\nsamples = 14\nvalue = [4, 10]", fillcolor="#88c4ef"] ;
145 -> 147 ;
148 [label="entropy = 0.0\nsamples = 8\nvalue = [0, 8]", fillcolor="#399de5"] ;
147 -> 148 ;
149 [label="Percent.difference.CTC <= 129.165\nentropy = 0.918\nsamples = 6\nvalue = [4, 2]", fillcolor="#f2c09c"] ;
147 -> 149 ;
150 [label="entropy = 0.0\nsamples = 4\nvalue = [4, 0]", fillcolor="#e58139"] ;
149 -> 150 ;
151 [label="entropy = 0.0\nsamples = 2\nvalue = [0, 2]", fillcolor="#399de5"] ;
149 -> 151 ;
152 [label="entropy = 0.0\nsamples = 6\nvalue = [0, 6]", fillcolor="#399de5"] ;
144 -> 152 ;
153 [label="entropy = 0.0\nsamples = 3\nvalue = [3, 0]", fillcolor="#e58139"] ;
143 -> 153 ;
154 [label="entropy = 0.0\nsamples = 8\nvalue = [0, 8]", fillcolor="#399de5"] ;
142 -> 154 ;
155 [label="entropy = 0.0\nsamples = 4\nvalue = [4, 0]", fillcolor="#e58139"] ;
139 -> 155 ;
156 [label="Candidate.Ref <= 2324348.5\nentropy = 0.659\nsamples = 205\nvalue = [170, 35]", fillcolor="#ea9b62"] ;
12 -> 156 ;
157 [label="entropy = 0.0\nsamples = 7\nvalue = [0, 7]", fillcolor="#399de5"] ;
156 -> 157 ;
158 [label="Percent.hike.offered.in.CTC <= 91.66\nentropy = 0.588\nsamples = 198\nvalue = [170, 28]", fillcolor="#e9965a"] ;
156 -> 158 ;
159 [label="Joining.Bonus_Yes <= 0.5\nentropy = 0.505\nsamples = 188\nvalue = [167, 21]", fillcolor="#e89152"] ;
158 -> 159 ;
160 [label="Candidate.Ref <= 2991334.5\nentropy = 0.444\nsamples = 184\nvalue = [167, 17]", fillcolor="#e88e4d"] ;
159 -> 160 ;
161 [label="Candidate.Ref <= 2947505.5\nentropy = 0.568\nsamples = 127\nvalue = [110, 17]", fillcolor="#e99458"] ;
160 -> 161 ;
162 [label="Rex.in.Yrs <= 1.5\nentropy = 0.529\nsamples = 125\nvalue = [110, 15]", fillcolor="#e99254"] ;
161 -> 162 ;
163 [label="entropy = 0.0\nsamples = 32\nvalue = [32, 0]", fillcolor="#e58139"] ;
162 -> 163 ;
164 [label="Candidate.Ref <= 2354410.5\nentropy = 0.637\nsamples = 93\nvalue = [78, 15]", fillcolor="#ea995f"] ;
162 -> 164 ;
165 [label="Candidate.Ref <= 2347924.0\nentropy = 1.0\nsamples = 10\nvalue = [5, 5]", fillcolor="#ffffff"] ;
164 -> 165 ;
166 [label="entropy = 0.0\nsamples = 4\nvalue = [4, 0]", fillcolor="#e58139"] ;
165 -> 166 ;
167 [label="Pecent.hike.expected.in.CTC <= 41.43\nentropy = 0.65\nsamples = 6\nvalue = [1, 5]", fillcolor="#61b1ea"] ;
165 -> 167 ;
168 [label="entropy = 0.0\nsamples = 1\nvalue = [1, 0]", fillcolor="#e58139"] ;
167 -> 168 ;
169 [label="entropy = 0.0\nsamples = 5\nvalue = [0, 5]", fillcolor="#399de5"] ;
167 -> 169 ;
170 [label="Pecent.hike.expected.in.CTC <= 37.555\nentropy = 0.531\nsamples = 83\nvalue = [73, 10]", fillcolor="#e99254"] ;
164 -> 170 ;
171 [label="Percent.hike.offered.in.CTC <= 31.935\nentropy = 0.738\nsamples = 48\nvalue = [38, 10]", fillcolor="#eca26d"] ;
170 -> 171 ;
172 [label="Pecent.hike.expected.in.CTC <= 21.24\nentropy = 0.439\nsamples = 33\nvalue = [30, 3]", fillcolor="#e88e4d"] ;
171 -> 172 ;
173 [label="Gender_Female <= 0.5\nentropy = 0.696\nsamples = 16\nvalue = [13, 3]", fillcolor="#eb9e67"] ;
172 -> 173 ;
174 [label="Pecent.hike.expected.in.CTC <= 19.435\nentropy = 0.371\nsamples = 14\nvalue = [13, 1]", fillcolor="#e78b48"] ;
173 -> 174 ;
175 [label="entropy = 0.0\nsamples = 13\nvalue = [13, 0]", fillcolor="#e58139"] ;
174 -> 175 ;
176 [label="entropy = 0.0\nsamples = 1\nvalue = [0, 1]", fillcolor="#399de5"] ;
174 -> 176 ;
177 [label="entropy = 0.0\nsamples = 2\nvalue = [0, 2]", fillcolor="#399de5"] ;
173 -> 177 ;
178 [label="entropy = 0.0\nsamples = 17\nvalue = [17, 0]", fillcolor="#e58139"] ;
172 -> 178 ;
179 [label="Candidate.Ref <= 2436283.5\nentropy = 0.997\nsamples = 15\nvalue = [8, 7]", fillcolor="#fcefe6"] ;
171 -> 179 ;
180 [label="entropy = 0.0\nsamples = 4\nvalue = [4, 0]", fillcolor="#e58139"] ;
179 -> 180 ;
181 [label="Percent.difference.CTC <= 11.135\nentropy = 0.946\nsamples = 11\nvalue = [4, 7]", fillcolor="#aad5f4"] ;
179 -> 181 ;
182 [label="Age <= 31.0\nentropy = 0.764\nsamples = 9\nvalue = [2, 7]", fillcolor="#72b9ec"] ;
181 -> 182 ;
183 [label="Candidate.Source_Direct <= 0.5\nentropy = 0.544\nsamples = 8\nvalue = [1, 7]", fillcolor="#55abe9"] ;
182 -> 183 ;
184 [label="entropy = 0.0\nsamples = 4\nvalue = [0, 4]", fillcolor="#399de5"] ;
183 -> 184 ;
185 [label="Percent.hike.offered.in.CTC <= 40.93\nentropy = 0.811\nsamples = 4\nvalue = [1, 3]", fillcolor="#7bbeee"] ;
183 -> 185 ;
186 [label="entropy = 0.0\nsamples = 1\nvalue = [1, 0]", fillcolor="#e58139"] ;
185 -> 186 ;
187 [label="entropy = 0.0\nsamples = 3\nvalue = [0, 3]", fillcolor="#399de5"] ;
185 -> 187 ;
188 [label="entropy = 0.0\nsamples = 1\nvalue = [1, 0]", fillcolor="#e58139"] ;
182 -> 188 ;
189 [label="entropy = 0.0\nsamples = 2\nvalue = [2, 0]", fillcolor="#e58139"] ;
181 -> 189 ;
190 [label="entropy = 0.0\nsamples = 35\nvalue = [35, 0]", fillcolor="#e58139"] ;
170 -> 190 ;
191 [label="entropy = 0.0\nsamples = 2\nvalue = [0, 2]", fillcolor="#399de5"] ;
161 -> 191 ;
192 [label="entropy = 0.0\nsamples = 57\nvalue = [57, 0]", fillcolor="#e58139"] ;
160 -> 192 ;
193 [label="entropy = 0.0\nsamples = 4\nvalue = [0, 4]", fillcolor="#399de5"] ;
159 -> 193 ;
194 [label="Candidate.Source_Direct <= 0.5\nentropy = 0.881\nsamples = 10\nvalue = [3, 7]", fillcolor="#8ec7f0"] ;
158 -> 194 ;
195 [label="entropy = 0.0\nsamples = 3\nvalue = [3, 0]", fillcolor="#e58139"] ;
194 -> 195 ;
196 [label="entropy = 0.0\nsamples = 7\nvalue = [0, 7]", fillcolor="#399de5"] ;
194 -> 196 ;
197 [label="Candidate.Ref <= 3511405.0\nentropy = 0.987\nsamples = 3212\nvalue = [1824, 1388]", fillcolor="#f9e1d0"] ;
5 -> 197 ;
198 [label="Percent.difference.CTC <= -4.495\nentropy = 0.992\nsamples = 3016\nvalue = [1671, 1345]", fillcolor="#fae6d8"] ;
197 -> 198 ;
199 [label="LOB_INFRA <= 0.5\nentropy = 0.999\nsamples = 1113\nvalue = [540, 573]", fillcolor="#f4f9fe"] ;
198 -> 199 ;
200 [label="Offered.band_E2 <= 0.5\nentropy = 0.994\nsamples = 935\nvalue = [424, 511]", fillcolor="#ddeefb"] ;
199 -> 200 ;
201 [label="Duration.to.accept.offer <= 2.5\nentropy = 1.0\nsamples = 733\nvalue = [366, 367]", fillcolor="#feffff"] ;
200 -> 201 ;
202 [label="Pecent.hike.expected.in.CTC <= 29.03\nentropy = 0.851\nsamples = 83\nvalue = [23, 60]", fillcolor="#85c3ef"] ;
201 -> 202 ;
203 [label="Percent.difference.CTC <= -8.52\nentropy = 0.977\nsamples = 17\nvalue = [10, 7]", fillcolor="#f7d9c4"] ;
202 -> 203 ;
204 [label="entropy = 0.0\nsamples = 9\nvalue = [9, 0]", fillcolor="#e58139"] ;
203 -> 204 ;
205 [label="Percent.hike.offered.in.CTC <= 15.815\nentropy = 0.544\nsamples = 8\nvalue = [1, 7]", fillcolor="#55abe9"] ;
203 -> 205 ;
206 [label="entropy = 0.0\nsamples = 7\nvalue = [0, 7]", fillcolor="#399de5"] ;
205 -> 206 ;
207 [label="entropy = 0.0\nsamples = 1\nvalue = [1, 0]", fillcolor="#e58139"] ;
205 -> 207 ;
208 [label="Percent.hike.offered.in.CTC <= 24.285\nentropy = 0.716\nsamples = 66\nvalue = [13, 53]", fillcolor="#6ab5eb"] ;
202 -> 208 ;
209 [label="entropy = 0.0\nsamples = 16\nvalue = [0, 16]", fillcolor="#399de5"] ;
208 -> 209 ;
210 [label="Percent.difference.CTC <= -18.825\nentropy = 0.827\nsamples = 50\nvalue = [13, 37]", fillcolor="#7fbfee"] ;
208 -> 210 ;
211 [label="entropy = 0.0\nsamples = 4\nvalue = [4, 0]", fillcolor="#e58139"] ;
210 -> 211 ;
212 [label="Percent.difference.CTC <= -13.75\nentropy = 0.713\nsamples = 46\nvalue = [9, 37]", fillcolor="#69b5eb"] ;
210 -> 212 ;
213 [label="entropy = 0.0\nsamples = 14\nvalue = [0, 14]", fillcolor="#399de5"] ;
212 -> 213 ;
214 [label="LOB_BFSI <= 0.5\nentropy = 0.857\nsamples = 32\nvalue = [9, 23]", fillcolor="#86c3ef"] ;
212 -> 214 ;
215 [label="Age <= 28.5\nentropy = 0.736\nsamples = 29\nvalue = [6, 23]", fillcolor="#6db7ec"] ;
214 -> 215 ;
216 [label="Rex.in.Yrs <= 2.0\nentropy = 0.286\nsamples = 20\nvalue = [1, 19]", fillcolor="#43a2e6"] ;
215 -> 216 ;
217 [label="entropy = 0.0\nsamples = 1\nvalue = [1, 0]", fillcolor="#e58139"] ;
216 -> 217 ;
218 [label="entropy = 0.0\nsamples = 19\nvalue = [0, 19]", fillcolor="#399de5"] ;
216 -> 218 ;
219 [label="Candidate.Ref <= 3399719.0\nentropy = 0.991\nsamples = 9\nvalue = [5, 4]", fillcolor="#fae6d7"] ;
215 -> 219 ;
220 [label="entropy = 0.0\nsamples = 5\nvalue = [5, 0]", fillcolor="#e58139"] ;
219 -> 220 ;
221 [label="entropy = 0.0\nsamples = 4\nvalue = [0, 4]", fillcolor="#399de5"] ;
219 -> 221 ;
222 [label="entropy = 0.0\nsamples = 3\nvalue = [3, 0]", fillcolor="#e58139"] ;
214 -> 222 ;
223 [label="Candidate.Ref <= 2481044.5\nentropy = 0.998\nsamples = 650\nvalue = [343, 307]", fillcolor="#fcf2ea"] ;
201 -> 223 ;
224 [label="Candidate.Ref <= 2356810.0\nentropy = 0.944\nsamples = 174\nvalue = [111, 63]", fillcolor="#f4c9a9"] ;
223 -> 224 ;
225 [label="Candidate.Source_Agency <= 0.5\nentropy = 0.997\nsamples = 64\nvalue = [30, 34]", fillcolor="#e8f3fc"] ;
224 -> 225 ;
226 [label="Percent.hike.offered.in.CTC <= 61.52\nentropy = 0.981\nsamples = 43\nvalue = [25, 18]", fillcolor="#f8dcc8"] ;
225 -> 226 ;
227 [label="LOB_ERS <= 0.5\nentropy = 0.837\nsamples = 30\nvalue = [22, 8]", fillcolor="#eeaf81"] ;
226 -> 227 ;
228 [label="entropy = 0.0\nsamples = 14\nvalue = [14, 0]", fillcolor="#e58139"] ;
227 -> 228 ;
229 [label="Candidate.Ref <= 2212161.5\nentropy = 1.0\nsamples = 16\nvalue = [8, 8]", fillcolor="#ffffff"] ;
227 -> 229 ;
230 [label="entropy = 0.0\nsamples = 6\nvalue = [6, 0]", fillcolor="#e58139"] ;
229 -> 230 ;
231 [label="Duration.to.accept.offer <= 5.0\nentropy = 0.722\nsamples = 10\nvalue = [2, 8]", fillcolor="#6ab6ec"] ;
229 -> 231 ;
232 [label="entropy = 0.0\nsamples = 2\nvalue = [2, 0]", fillcolor="#e58139"] ;
231 -> 232 ;
233 [label="entropy = 0.0\nsamples = 8\nvalue = [0, 8]", fillcolor="#399de5"] ;
231 -> 233 ;
234 [label="Pecent.hike.expected.in.CTC <= 140.68\nentropy = 0.779\nsamples = 13\nvalue = [3, 10]", fillcolor="#74baed"] ;
226 -> 234 ;
235 [label="entropy = 0.0\nsamples = 10\nvalue = [0, 10]", fillcolor="#399de5"] ;
234 -> 235 ;
236 [label="entropy = 0.0\nsamples = 3\nvalue = [3, 0]", fillcolor="#e58139"] ;
234 -> 236 ;
237 [label="Candidate.Ref <= 2347978.0\nentropy = 0.792\nsamples = 21\nvalue = [5, 16]", fillcolor="#77bced"] ;
225 -> 237 ;
238 [label="Pecent.hike.expected.in.CTC <= 40.58\nentropy = 0.503\nsamples = 18\nvalue = [2, 16]", fillcolor="#52a9e8"] ;
237 -> 238 ;
239 [label="entropy = 0.0\nsamples = 12\nvalue = [0, 12]", fillcolor="#399de5"] ;
238 -> 239 ;
240 [label="Percent.hike.offered.in.CTC <= 27.695\nentropy = 0.918\nsamples = 6\nvalue = [2, 4]", fillcolor="#9ccef2"] ;
238 -> 240 ;
241 [label="entropy = 0.0\nsamples = 2\nvalue = [2, 0]", fillcolor="#e58139"] ;
240 -> 241 ;
242 [label="entropy = 0.0\nsamples = 4\nvalue = [0, 4]", fillcolor="#399de5"] ;
240 -> 242 ;
243 [label="entropy = 0.0\nsamples = 3\nvalue = [3, 0]", fillcolor="#e58139"] ;
237 -> 243 ;
244 [label="Percent.hike.offered.in.CTC <= 36.345\nentropy = 0.832\nsamples = 110\nvalue = [81, 29]", fillcolor="#eeae80"] ;
224 -> 244 ;
245 [label="DOJ.Extended_Yes <= 0.5\nentropy = 0.637\nsamples = 62\nvalue = [52, 10]", fillcolor="#ea995f"] ;
244 -> 245 ;
246 [label="entropy = 0.0\nsamples = 29\nvalue = [29, 0]", fillcolor="#e58139"] ;
245 -> 246 ;
247 [label="Duration.to.accept.offer <= 8.5\nentropy = 0.885\nsamples = 33\nvalue = [23, 10]", fillcolor="#f0b88f"] ;
245 -> 247 ;
248 [label="entropy = 0.0\nsamples = 11\nvalue = [11, 0]", fillcolor="#e58139"] ;
247 -> 248 ;
249 [label="Age <= 28.5\nentropy = 0.994\nsamples = 22\nvalue = [12, 10]", fillcolor="#fbeade"] ;
247 -> 249 ;
250 [label="Candidate.Ref <= 2421904.5\nentropy = 0.918\nsamples = 15\nvalue = [5, 10]", fillcolor="#9ccef2"] ;
249 -> 250 ;
251 [label="entropy = 0.0\nsamples = 5\nvalue = [0, 5]", fillcolor="#399de5"] ;
250 -> 251 ;
252 [label="Duration.to.accept.offer <= 14.5\nentropy = 1.0\nsamples = 10\nvalue = [5, 5]", fillcolor="#ffffff"] ;
250 -> 252 ;
253 [label="Percent.difference.CTC <= -14.375\nentropy = 0.65\nsamples = 6\nvalue = [1, 5]", fillcolor="#61b1ea"] ;
252 -> 253 ;
254 [label="entropy = 0.0\nsamples = 1\nvalue = [1, 0]", fillcolor="#e58139"] ;
253 -> 254 ;
255 [label="entropy = 0.0\nsamples = 5\nvalue = [0, 5]", fillcolor="#399de5"] ;
253 -> 255 ;
256 [label="entropy = 0.0\nsamples = 4\nvalue = [4, 0]", fillcolor="#e58139"] ;
252 -> 256 ;
257 [label="entropy = 0.0\nsamples = 7\nvalue = [7, 0]", fillcolor="#e58139"] ;
249 -> 257 ;
258 [label="Duration.to.accept.offer <= 23.0\nentropy = 0.968\nsamples = 48\nvalue = [29, 19]", fillcolor="#f6d4bb"] ;
244 -> 258 ;
259 [label="Rex.in.Yrs <= 2.5\nentropy = 0.958\nsamples = 29\nvalue = [11, 18]", fillcolor="#b2d9f5"] ;
258 -> 259 ;
260 [label="entropy = 0.0\nsamples = 5\nvalue = [5, 0]", fillcolor="#e58139"] ;
259 -> 260 ;
261 [label="Pecent.hike.expected.in.CTC <= 64.97\nentropy = 0.811\nsamples = 24\nvalue = [6, 18]", fillcolor="#7bbeee"] ;
259 -> 261 ;
262 [label="entropy = 0.0\nsamples = 9\nvalue = [0, 9]", fillcolor="#399de5"] ;
261 -> 262 ;
263 [label="Duration.to.accept.offer <= 20.5\nentropy = 0.971\nsamples = 15\nvalue = [6, 9]", fillcolor="#bddef6"] ;
261 -> 263 ;
264 [label="Percent.hike.offered.in.CTC <= 37.915\nentropy = 0.971\nsamples = 10\nvalue = [6, 4]", fillcolor="#f6d5bd"] ;
263 -> 264 ;
265 [label="entropy = 0.0\nsamples = 3\nvalue = [0, 3]", fillcolor="#399de5"] ;
264 -> 265 ;
266 [label="Gender_Female <= 0.5\nentropy = 0.592\nsamples = 7\nvalue = [6, 1]", fillcolor="#e9965a"] ;
264 -> 266 ;
267 [label="entropy = 0.0\nsamples = 6\nvalue = [6, 0]", fillcolor="#e58139"] ;
266 -> 267 ;
268 [label="entropy = 0.0\nsamples = 1\nvalue = [0, 1]", fillcolor="#399de5"] ;
266 -> 268 ;
269 [label="entropy = 0.0\nsamples = 5\nvalue = [0, 5]", fillcolor="#399de5"] ;
263 -> 269 ;
270 [label="Percent.difference.CTC <= -23.61\nentropy = 0.297\nsamples = 19\nvalue = [18, 1]", fillcolor="#e68844"] ;
258 -> 270 ;
271 [label="entropy = 0.0\nsamples = 1\nvalue = [0, 1]", fillcolor="#399de5"] ;
270 -> 271 ;
272 [label="entropy = 0.0\nsamples = 18\nvalue = [18, 0]", fillcolor="#e58139"] ;
270 -> 272 ;
273 [label="Location_Hyderabad <= 0.5\nentropy = 1.0\nsamples = 476\nvalue = [232, 244]", fillcolor="#f5fafe"] ;
223 -> 273 ;
274 [label="Age <= 30.5\nentropy = 0.998\nsamples = 465\nvalue = [221, 244]", fillcolor="#ecf6fd"] ;
273 -> 274 ;
275 [label="Duration.to.accept.offer <= 4.5\nentropy = 0.981\nsamples = 331\nvalue = [139, 192]", fillcolor="#c8e4f8"] ;
274 -> 275 ;
276 [label="Percent.hike.offered.in.CTC <= 22.345\nentropy = 0.904\nsamples = 50\nvalue = [34, 16]", fillcolor="#f1bc96"] ;
275 -> 276 ;
277 [label="entropy = 0.0\nsamples = 13\nvalue = [13, 0]", fillcolor="#e58139"] ;
276 -> 277 ;
278 [label="Age <= 26.5\nentropy = 0.987\nsamples = 37\nvalue = [21, 16]", fillcolor="#f9e1d0"] ;
276 -> 278 ;
279 [label="Percent.difference.CTC <= -27.045\nentropy = 0.523\nsamples = 17\nvalue = [15, 2]", fillcolor="#e89253"] ;
278 -> 279 ;
280 [label="entropy = 0.0\nsamples = 1\nvalue = [0, 1]", fillcolor="#399de5"] ;
279 -> 280 ;
281 [label="Percent.difference.CTC <= -5.925\nentropy = 0.337\nsamples = 16\nvalue = [15, 1]", fillcolor="#e78946"] ;
279 -> 281 ;
282 [label="entropy = 0.0\nsamples = 14\nvalue = [14, 0]", fillcolor="#e58139"] ;
281 -> 282 ;
283 [label="DOJ.Extended_Yes <= 0.5\nentropy = 1.0\nsamples = 2\nvalue = [1, 1]", fillcolor="#ffffff"] ;
281 -> 283 ;
284 [label="entropy = 0.0\nsamples = 1\nvalue = [0, 1]", fillcolor="#399de5"] ;
283 -> 284 ;
285 [label="entropy = 0.0\nsamples = 1\nvalue = [1, 0]", fillcolor="#e58139"] ;
283 -> 285 ;
286 [label="Percent.difference.CTC <= -7.415\nentropy = 0.881\nsamples = 20\nvalue = [6, 14]", fillcolor="#8ec7f0"] ;
278 -> 286 ;
287 [label="Candidate.Source_Agency <= 0.5\nentropy = 1.0\nsamples = 12\nvalue = [6, 6]", fillcolor="#ffffff"] ;
286 -> 287 ;
288 [label="entropy = 0.0\nsamples = 5\nvalue = [5, 0]", fillcolor="#e58139"] ;
287 -> 288 ;
289 [label="Pecent.hike.expected.in.CTC <= 103.33\nentropy = 0.592\nsamples = 7\nvalue = [1, 6]", fillcolor="#5aade9"] ;
287 -> 289 ;
290 [label="entropy = 0.0\nsamples = 6\nvalue = [0, 6]", fillcolor="#399de5"] ;
289 -> 290 ;
291 [label="entropy = 0.0\nsamples = 1\nvalue = [1, 0]", fillcolor="#e58139"] ;
289 -> 291 ;
292 [label="entropy = 0.0\nsamples = 8\nvalue = [0, 8]", fillcolor="#399de5"] ;
286 -> 292 ;
293 [label="Rex.in.Yrs <= 4.5\nentropy = 0.953\nsamples = 281\nvalue = [105, 176]", fillcolor="#afd7f5"] ;
275 -> 293 ;
294 [label="Percent.difference.CTC <= -36.765\nentropy = 0.927\nsamples = 263\nvalue = [90, 173]", fillcolor="#a0d0f3"] ;
293 -> 294 ;
295 [label="entropy = 0.0\nsamples = 11\nvalue = [0, 11]", fillcolor="#399de5"] ;
294 -> 295 ;
296 [label="Candidate.Ref <= 3304503.0\nentropy = 0.94\nsamples = 252\nvalue = [90, 162]", fillcolor="#a7d3f3"] ;
294 -> 296 ;
297 [label="Pecent.hike.expected.in.CTC <= 65.81\nentropy = 0.921\nsamples = 238\nvalue = [80, 158]", fillcolor="#9dcff2"] ;
296 -> 297 ;
298 [label="Percent.hike.offered.in.CTC <= 30.475\nentropy = 0.859\nsamples = 177\nvalue = [50, 127]", fillcolor="#87c4ef"] ;
297 -> 298 ;
299 [label="Percent.difference.CTC <= -6.46\nentropy = 0.961\nsamples = 99\nvalue = [38, 61]", fillcolor="#b4daf5"] ;
298 -> 299 ;
300 [label="Candidate.Ref <= 2822526.0\nentropy = 0.935\nsamples = 94\nvalue = [33, 61]", fillcolor="#a4d2f3"] ;
299 -> 300 ;
301 [label="Percent.hike.offered.in.CTC <= 26.29\nentropy = 0.796\nsamples = 54\nvalue = [13, 41]", fillcolor="#78bced"] ;
300 -> 301 ;
302 [label="Duration.to.accept.offer <= 52.0\nentropy = 0.658\nsamples = 47\nvalue = [8, 39]", fillcolor="#62b1ea"] ;
301 -> 302 ;
303 [label="Duration.to.accept.offer <= 34.5\nentropy = 0.787\nsamples = 34\nvalue = [8, 26]", fillcolor="#76bbed"] ;
302 -> 303 ;
304 [label="Percent.difference.CTC <= -15.005\nentropy = 0.567\nsamples = 30\nvalue = [4, 26]", fillcolor="#57ace9"] ;
303 -> 304 ;
305 [label="entropy = 0.0\nsamples = 19\nvalue = [0, 19]", fillcolor="#399de5"] ;
304 -> 305 ;
306 [label="Duration.to.accept.offer <= 22.0\nentropy = 0.946\nsamples = 11\nvalue = [4, 7]", fillcolor="#aad5f4"] ;
304 -> 306 ;
307 [label="entropy = 0.0\nsamples = 4\nvalue = [4, 0]", fillcolor="#e58139"] ;
306 -> 307 ;
308 [label="entropy = 0.0\nsamples = 7\nvalue = [0, 7]", fillcolor="#399de5"] ;
306 -> 308 ;
309 [label="entropy = 0.0\nsamples = 4\nvalue = [4, 0]", fillcolor="#e58139"] ;
303 -> 309 ;
310 [label="entropy = 0.0\nsamples = 13\nvalue = [0, 13]", fillcolor="#399de5"] ;
302 -> 310 ;
311 [label="Candidate.Ref <= 2813850.0\nentropy = 0.863\nsamples = 7\nvalue = [5, 2]", fillcolor="#efb388"] ;
301 -> 311 ;
312 [label="entropy = 0.0\nsamples = 5\nvalue = [5, 0]", fillcolor="#e58139"] ;
311 -> 312 ;
313 [label="entropy = 0.0\nsamples = 2\nvalue = [0, 2]", fillcolor="#399de5"] ;
311 -> 313 ;
314 [label="Candidate.Ref <= 3033902.0\nentropy = 1.0\nsamples = 40\nvalue = [20, 20]", fillcolor="#ffffff"] ;
300 -> 314 ;
315 [label="entropy = 0.0\nsamples = 10\nvalue = [10, 0]", fillcolor="#e58139"] ;
314 -> 315 ;
316 [label="Age <= 27.5\nentropy = 0.918\nsamples = 30\nvalue = [10, 20]", fillcolor="#9ccef2"] ;
314 -> 316 ;
317 [label="Duration.to.accept.offer <= 21.5\nentropy = 1.0\nsamples = 18\nvalue = [9, 9]", fillcolor="#ffffff"] ;
316 -> 317 ;
318 [label="Percent.difference.CTC <= -18.335\nentropy = 0.971\nsamples = 15\nvalue = [6, 9]", fillcolor="#bddef6"] ;
317 -> 318 ;
319 [label="DOJ.Extended_Yes <= 0.5\nentropy = 0.722\nsamples = 5\nvalue = [4, 1]", fillcolor="#eca06a"] ;
318 -> 319 ;
320 [label="Percent.hike.offered.in.CTC <= 14.68\nentropy = 1.0\nsamples = 2\nvalue = [1, 1]", fillcolor="#ffffff"] ;
319 -> 320 ;
321 [label="entropy = 0.0\nsamples = 1\nvalue = [0, 1]", fillcolor="#399de5"] ;
320 -> 321 ;
322 [label="entropy = 0.0\nsamples = 1\nvalue = [1, 0]", fillcolor="#e58139"] ;
320 -> 322 ;
323 [label="entropy = 0.0\nsamples = 3\nvalue = [3, 0]", fillcolor="#e58139"] ;
319 -> 323 ;
324 [label="Percent.difference.CTC <= -11.01\nentropy = 0.722\nsamples = 10\nvalue = [2, 8]", fillcolor="#6ab6ec"] ;
318 -> 324 ;
325 [label="entropy = 0.0\nsamples = 6\nvalue = [0, 6]", fillcolor="#399de5"] ;
324 -> 325 ;
326 [label="LOB_ERS <= 0.5\nentropy = 1.0\nsamples = 4\nvalue = [2, 2]", fillcolor="#ffffff"] ;
324 -> 326 ;
327 [label="entropy = 0.0\nsamples = 2\nvalue = [2, 0]", fillcolor="#e58139"] ;
326 -> 327 ;
328 [label="entropy = 0.0\nsamples = 2\nvalue = [0, 2]", fillcolor="#399de5"] ;
326 -> 328 ;
329 [label="entropy = 0.0\nsamples = 3\nvalue = [3, 0]", fillcolor="#e58139"] ;
317 -> 329 ;
330 [label="Location_Bangalore <= 0.5\nentropy = 0.414\nsamples = 12\nvalue = [1, 11]", fillcolor="#4ba6e7"] ;
316 -> 330 ;
331 [label="entropy = 0.0\nsamples = 10\nvalue = [0, 10]", fillcolor="#399de5"] ;
330 -> 331 ;
332 [label="Gender_Female <= 0.5\nentropy = 1.0\nsamples = 2\nvalue = [1, 1]", fillcolor="#ffffff"] ;
330 -> 332 ;
333 [label="entropy = 0.0\nsamples = 1\nvalue = [1, 0]", fillcolor="#e58139"] ;
332 -> 333 ;
334 [label="entropy = 0.0\nsamples = 1\nvalue = [0, 1]", fillcolor="#399de5"] ;
332 -> 334 ;
335 [label="entropy = 0.0\nsamples = 5\nvalue = [5, 0]", fillcolor="#e58139"] ;
299 -> 335 ;
336 [label="Rex.in.Yrs <= 3.5\nentropy = 0.619\nsamples = 78\nvalue = [12, 66]", fillcolor="#5dafea"] ;
298 -> 336 ;
337 [label="Rex.in.Yrs <= 2.5\nentropy = 0.539\nsamples = 73\nvalue = [9, 64]", fillcolor="#55abe9"] ;
336 -> 337 ;
338 [label="Location_Chennai <= 0.5\nentropy = 0.961\nsamples = 13\nvalue = [5, 8]", fillcolor="#b5daf5"] ;
337 -> 338 ;
339 [label="entropy = 0.0\nsamples = 4\nvalue = [4, 0]", fillcolor="#e58139"] ;
338 -> 339 ;
340 [label="Percent.difference.CTC <= -7.29\nentropy = 0.503\nsamples = 9\nvalue = [1, 8]", fillcolor="#52a9e8"] ;
338 -> 340 ;
341 [label="entropy = 0.0\nsamples = 8\nvalue = [0, 8]", fillcolor="#399de5"] ;
340 -> 341 ;
342 [label="entropy = 0.0\nsamples = 1\nvalue = [1, 0]", fillcolor="#e58139"] ;
340 -> 342 ;
343 [label="DOJ.Extended_No <= 0.5\nentropy = 0.353\nsamples = 60\nvalue = [4, 56]", fillcolor="#47a4e7"] ;
337 -> 343 ;
344 [label="entropy = 0.0\nsamples = 40\nvalue = [0, 40]", fillcolor="#399de5"] ;
343 -> 344 ;
345 [label="Percent.hike.offered.in.CTC <= 37.8\nentropy = 0.722\nsamples = 20\nvalue = [4, 16]", fillcolor="#6ab6ec"] ;
343 -> 345 ;
346 [label="entropy = 0.0\nsamples = 12\nvalue = [0, 12]", fillcolor="#399de5"] ;
345 -> 346 ;
347 [label="LOB_EAS <= 0.5\nentropy = 1.0\nsamples = 8\nvalue = [4, 4]", fillcolor="#ffffff"] ;
345 -> 347 ;
348 [label="entropy = 0.0\nsamples = 4\nvalue = [4, 0]", fillcolor="#e58139"] ;
347 -> 348 ;
349 [label="entropy = 0.0\nsamples = 4\nvalue = [0, 4]", fillcolor="#399de5"] ;
347 -> 349 ;
350 [label="LOB_BFSI <= 0.5\nentropy = 0.971\nsamples = 5\nvalue = [3, 2]", fillcolor="#f6d5bd"] ;
336 -> 350 ;
351 [label="entropy = 0.0\nsamples = 3\nvalue = [3, 0]", fillcolor="#e58139"] ;
350 -> 351 ;
352 [label="entropy = 0.0\nsamples = 2\nvalue = [0, 2]", fillcolor="#399de5"] ;
350 -> 352 ;
353 [label="Pecent.hike.expected.in.CTC <= 76.595\nentropy = 1.0\nsamples = 61\nvalue = [30, 31]", fillcolor="#f9fcfe"] ;
297 -> 353 ;
354 [label="entropy = 0.0\nsamples = 15\nvalue = [15, 0]", fillcolor="#e58139"] ;
353 -> 354 ;
355 [label="Candidate.Ref <= 3032234.0\nentropy = 0.911\nsamples = 46\nvalue = [15, 31]", fillcolor="#99ccf2"] ;
353 -> 355 ;
356 [label="Pecent.hike.expected.in.CTC <= 87.685\nentropy = 0.881\nsamples = 10\nvalue = [7, 3]", fillcolor="#f0b78e"] ;
355 -> 356 ;
357 [label="entropy = 0.0\nsamples = 3\nvalue = [0, 3]", fillcolor="#399de5"] ;
356 -> 357 ;
358 [label="entropy = 0.0\nsamples = 7\nvalue = [7, 0]", fillcolor="#e58139"] ;
356 -> 358 ;
359 [label="LOB_BFSI <= 0.5\nentropy = 0.764\nsamples = 36\nvalue = [8, 28]", fillcolor="#72b9ec"] ;
355 -> 359 ;
360 [label="Duration.to.accept.offer <= 6.5\nentropy = 0.672\nsamples = 34\nvalue = [6, 28]", fillcolor="#63b2eb"] ;
359 -> 360 ;
361 [label="entropy = 0.0\nsamples = 1\nvalue = [1, 0]", fillcolor="#e58139"] ;
360 -> 361 ;
362 [label="Percent.hike.offered.in.CTC <= 74.5\nentropy = 0.614\nsamples = 33\nvalue = [5, 28]", fillcolor="#5caeea"] ;
360 -> 362 ;
363 [label="Age <= 25.5\nentropy = 0.773\nsamples = 22\nvalue = [5, 17]", fillcolor="#73baed"] ;
362 -> 363 ;
364 [label="entropy = 0.0\nsamples = 2\nvalue = [2, 0]", fillcolor="#e58139"] ;
363 -> 364 ;
365 [label="Percent.difference.CTC <= -14.835\nentropy = 0.61\nsamples = 20\nvalue = [3, 17]", fillcolor="#5caeea"] ;
363 -> 365 ;
366 [label="entropy = 0.0\nsamples = 12\nvalue = [0, 12]", fillcolor="#399de5"] ;
365 -> 366 ;
367 [label="Age <= 26.5\nentropy = 0.954\nsamples = 8\nvalue = [3, 5]", fillcolor="#b0d8f5"] ;
365 -> 367 ;
368 [label="entropy = 0.0\nsamples = 5\nvalue = [0, 5]", fillcolor="#399de5"] ;
367 -> 368 ;
369 [label="entropy = 0.0\nsamples = 3\nvalue = [3, 0]", fillcolor="#e58139"] ;
367 -> 369 ;
370 [label="entropy = 0.0\nsamples = 11\nvalue = [0, 11]", fillcolor="#399de5"] ;
362 -> 370 ;
371 [label="entropy = 0.0\nsamples = 2\nvalue = [2, 0]", fillcolor="#e58139"] ;
359 -> 371 ;
372 [label="Pecent.hike.expected.in.CTC <= 214.285\nentropy = 0.863\nsamples = 14\nvalue = [10, 4]", fillcolor="#efb388"] ;
296 -> 372 ;
373 [label="Age <= 28.5\nentropy = 0.65\nsamples = 12\nvalue = [10, 2]", fillcolor="#ea9a61"] ;
372 -> 373 ;
374 [label="Gender_Female <= 0.5\nentropy = 0.439\nsamples = 11\nvalue = [10, 1]", fillcolor="#e88e4d"] ;
373 -> 374 ;
375 [label="entropy = 0.0\nsamples = 8\nvalue = [8, 0]", fillcolor="#e58139"] ;
374 -> 375 ;
376 [label="Candidate.Ref <= 3321455.5\nentropy = 0.918\nsamples = 3\nvalue = [2, 1]", fillcolor="#f2c09c"] ;
374 -> 376 ;
377 [label="entropy = 0.0\nsamples = 1\nvalue = [0, 1]", fillcolor="#399de5"] ;
376 -> 377 ;
378 [label="entropy = 0.0\nsamples = 2\nvalue = [2, 0]", fillcolor="#e58139"] ;
376 -> 378 ;
379 [label="entropy = 0.0\nsamples = 1\nvalue = [0, 1]", fillcolor="#399de5"] ;
373 -> 379 ;
380 [label="entropy = 0.0\nsamples = 2\nvalue = [0, 2]", fillcolor="#399de5"] ;
372 -> 380 ;
381 [label="Candidate.Ref <= 3269370.5\nentropy = 0.65\nsamples = 18\nvalue = [15, 3]", fillcolor="#ea9a61"] ;
293 -> 381 ;
382 [label="entropy = 0.0\nsamples = 13\nvalue = [13, 0]", fillcolor="#e58139"] ;
381 -> 382 ;
383 [label="Percent.hike.offered.in.CTC <= 34.015\nentropy = 0.971\nsamples = 5\nvalue = [2, 3]", fillcolor="#bddef6"] ;
381 -> 383 ;
384 [label="entropy = 0.0\nsamples = 3\nvalue = [0, 3]", fillcolor="#399de5"] ;
383 -> 384 ;
385 [label="entropy = 0.0\nsamples = 2\nvalue = [2, 0]", fillcolor="#e58139"] ;
383 -> 385 ;
386 [label="Duration.to.accept.offer <= 8.5\nentropy = 0.964\nsamples = 134\nvalue = [82, 52]", fillcolor="#f5d1b7"] ;
274 -> 386 ;
387 [label="Gender_Male <= 0.5\nentropy = 0.9\nsamples = 38\nvalue = [12, 26]", fillcolor="#94caf1"] ;
386 -> 387 ;
388 [label="entropy = 0.0\nsamples = 13\nvalue = [0, 13]", fillcolor="#399de5"] ;
387 -> 388 ;
389 [label="LOB_BFSI <= 0.5\nentropy = 0.999\nsamples = 25\nvalue = [12, 13]", fillcolor="#f0f7fd"] ;
387 -> 389 ;
390 [label="Percent.difference.CTC <= -10.545\nentropy = 0.937\nsamples = 17\nvalue = [11, 6]", fillcolor="#f3c6a5"] ;
389 -> 390 ;
391 [label="entropy = 0.0\nsamples = 7\nvalue = [7, 0]", fillcolor="#e58139"] ;
390 -> 391 ;
392 [label="Location_Chennai <= 0.5\nentropy = 0.971\nsamples = 10\nvalue = [4, 6]", fillcolor="#bddef6"] ;
390 -> 392 ;
393 [label="Percent.difference.CTC <= -8.305\nentropy = 0.722\nsamples = 5\nvalue = [4, 1]", fillcolor="#eca06a"] ;
392 -> 393 ;
394 [label="entropy = 0.0\nsamples = 1\nvalue = [0, 1]", fillcolor="#399de5"] ;
393 -> 394 ;
395 [label="entropy = 0.0\nsamples = 4\nvalue = [4, 0]", fillcolor="#e58139"] ;
393 -> 395 ;
396 [label="entropy = 0.0\nsamples = 5\nvalue = [0, 5]", fillcolor="#399de5"] ;
392 -> 396 ;
397 [label="Age <= 33.5\nentropy = 0.544\nsamples = 8\nvalue = [1, 7]", fillcolor="#55abe9"] ;
389 -> 397 ;
398 [label="entropy = 0.0\nsamples = 1\nvalue = [1, 0]", fillcolor="#e58139"] ;
397 -> 398 ;
399 [label="entropy = 0.0\nsamples = 7\nvalue = [0, 7]", fillcolor="#399de5"] ;
397 -> 399 ;
400 [label="Percent.hike.offered.in.CTC <= 28.15\nentropy = 0.843\nsamples = 96\nvalue = [70, 26]", fillcolor="#efb083"] ;
386 -> 400 ;
401 [label="LOB_AXON <= 0.5\nentropy = 0.391\nsamples = 39\nvalue = [36, 3]", fillcolor="#e78c49"] ;
400 -> 401 ;
402 [label="entropy = 0.0\nsamples = 30\nvalue = [30, 0]", fillcolor="#e58139"] ;
401 -> 402 ;
403 [label="Pecent.hike.expected.in.CTC <= 30.41\nentropy = 0.918\nsamples = 9\nvalue = [6, 3]", fillcolor="#f2c09c"] ;
401 -> 403 ;
404 [label="entropy = 0.0\nsamples = 5\nvalue = [5, 0]", fillcolor="#e58139"] ;
403 -> 404 ;
405 [label="Rex.in.Yrs <= 5.0\nentropy = 0.811\nsamples = 4\nvalue = [1, 3]", fillcolor="#7bbeee"] ;
403 -> 405 ;
406 [label="entropy = 0.0\nsamples = 1\nvalue = [1, 0]", fillcolor="#e58139"] ;
405 -> 406 ;
407 [label="entropy = 0.0\nsamples = 3\nvalue = [0, 3]", fillcolor="#399de5"] ;
405 -> 407 ;
408 [label="Percent.difference.CTC <= -11.27\nentropy = 0.973\nsamples = 57\nvalue = [34, 23]", fillcolor="#f7d6bf"] ;
400 -> 408 ;
409 [label="entropy = 0.0\nsamples = 13\nvalue = [13, 0]", fillcolor="#e58139"] ;
408 -> 409 ;
410 [label="Percent.difference.CTC <= -10.355\nentropy = 0.999\nsamples = 44\nvalue = [21, 23]", fillcolor="#eef6fd"] ;
408 -> 410 ;
411 [label="entropy = 0.0\nsamples = 11\nvalue = [0, 11]", fillcolor="#399de5"] ;
410 -> 411 ;
412 [label="Candidate.Source_Agency <= 0.5\nentropy = 0.946\nsamples = 33\nvalue = [21, 12]", fillcolor="#f4c9aa"] ;
410 -> 412 ;
413 [label="entropy = 0.0\nsamples = 13\nvalue = [13, 0]", fillcolor="#e58139"] ;
412 -> 413 ;
414 [label="Duration.to.accept.offer <= 30.0\nentropy = 0.971\nsamples = 20\nvalue = [8, 12]", fillcolor="#bddef6"] ;
412 -> 414 ;
415 [label="Age <= 32.5\nentropy = 0.619\nsamples = 13\nvalue = [2, 11]", fillcolor="#5dafea"] ;
414 -> 415 ;
416 [label="entropy = 0.0\nsamples = 2\nvalue = [2, 0]", fillcolor="#e58139"] ;
415 -> 416 ;
417 [label="entropy = 0.0\nsamples = 11\nvalue = [0, 11]", fillcolor="#399de5"] ;
415 -> 417 ;
418 [label="Percent.hike.offered.in.CTC <= 32.685\nentropy = 0.592\nsamples = 7\nvalue = [6, 1]", fillcolor="#e9965a"] ;
414 -> 418 ;
419 [label="entropy = 0.0\nsamples = 1\nvalue = [0, 1]", fillcolor="#399de5"] ;
418 -> 419 ;
420 [label="entropy = 0.0\nsamples = 6\nvalue = [6, 0]", fillcolor="#e58139"] ;
418 -> 420 ;
421 [label="entropy = 0.0\nsamples = 11\nvalue = [11, 0]", fillcolor="#e58139"] ;
273 -> 421 ;
422 [label="Pecent.hike.expected.in.CTC <= 11.05\nentropy = 0.865\nsamples = 202\nvalue = [58, 144]", fillcolor="#89c4ef"] ;
200 -> 422 ;
423 [label="entropy = 0.0\nsamples = 6\nvalue = [6, 0]", fillcolor="#e58139"] ;
422 -> 423 ;
424 [label="Notice.period <= 15.0\nentropy = 0.835\nsamples = 196\nvalue = [52, 144]", fillcolor="#80c0ee"] ;
422 -> 424 ;
425 [label="entropy = 0.0\nsamples = 5\nvalue = [5, 0]", fillcolor="#e58139"] ;
424 -> 425 ;
426 [label="Location_Chennai <= 0.5\nentropy = 0.805\nsamples = 191\nvalue = [47, 144]", fillcolor="#7abded"] ;
424 -> 426 ;
427 [label="Percent.hike.offered.in.CTC <= 4.56\nentropy = 0.918\nsamples = 111\nvalue = [37, 74]", fillcolor="#9ccef2"] ;
426 -> 427 ;
428 [label="entropy = 0.0\nsamples = 5\nvalue = [5, 0]", fillcolor="#e58139"] ;
427 -> 428 ;
429 [label="Age <= 28.5\nentropy = 0.884\nsamples = 106\nvalue = [32, 74]", fillcolor="#8fc7f0"] ;
427 -> 429 ;
430 [label="Percent.hike.offered.in.CTC <= 15.28\nentropy = 0.31\nsamples = 18\nvalue = [1, 17]", fillcolor="#45a3e7"] ;
429 -> 430 ;
431 [label="entropy = 0.0\nsamples = 1\nvalue = [1, 0]", fillcolor="#e58139"] ;
430 -> 431 ;
432 [label="entropy = 0.0\nsamples = 17\nvalue = [0, 17]", fillcolor="#399de5"] ;
430 -> 432 ;
433 [label="Pecent.hike.expected.in.CTC <= 37.865\nentropy = 0.936\nsamples = 88\nvalue = [31, 57]", fillcolor="#a5d2f3"] ;
429 -> 433 ;
434 [label="Duration.to.accept.offer <= 17.5\nentropy = 0.712\nsamples = 41\nvalue = [8, 33]", fillcolor="#69b5eb"] ;
433 -> 434 ;
435 [label="Gender_Female <= 0.5\nentropy = 0.431\nsamples = 34\nvalue = [3, 31]", fillcolor="#4ca6e8"] ;
434 -> 435 ;
436 [label="Duration.to.accept.offer <= 3.5\nentropy = 0.33\nsamples = 33\nvalue = [2, 31]", fillcolor="#46a3e7"] ;
435 -> 436 ;
437 [label="entropy = 0.0\nsamples = 1\nvalue = [1, 0]", fillcolor="#e58139"] ;
436 -> 437 ;
438 [label="LOB_ERS <= 0.5\nentropy = 0.201\nsamples = 32\nvalue = [1, 31]", fillcolor="#3fa0e6"] ;
436 -> 438 ;
439 [label="entropy = 0.0\nsamples = 28\nvalue = [0, 28]", fillcolor="#399de5"] ;
438 -> 439 ;
440 [label="Pecent.hike.expected.in.CTC <= 25.0\nentropy = 0.811\nsamples = 4\nvalue = [1, 3]", fillcolor="#7bbeee"] ;
438 -> 440 ;
441 [label="entropy = 0.0\nsamples = 1\nvalue = [1, 0]", fillcolor="#e58139"] ;
440 -> 441 ;
442 [label="entropy = 0.0\nsamples = 3\nvalue = [0, 3]", fillcolor="#399de5"] ;
440 -> 442 ;
443 [label="entropy = 0.0\nsamples = 1\nvalue = [1, 0]", fillcolor="#e58139"] ;
435 -> 443 ;
444 [label="Pecent.hike.expected.in.CTC <= 35.045\nentropy = 0.863\nsamples = 7\nvalue = [5, 2]", fillcolor="#efb388"] ;
434 -> 444 ;
445 [label="entropy = 0.0\nsamples = 5\nvalue = [5, 0]", fillcolor="#e58139"] ;
444 -> 445 ;
446 [label="entropy = 0.0\nsamples = 2\nvalue = [0, 2]", fillcolor="#399de5"] ;
444 -> 446 ;
447 [label="LOB_ERS <= 0.5\nentropy = 1.0\nsamples = 47\nvalue = [23, 24]", fillcolor="#f7fbfe"] ;
433 -> 447 ;
448 [label="Percent.hike.offered.in.CTC <= 35.65\nentropy = 0.985\nsamples = 42\nvalue = [18, 24]", fillcolor="#cee6f8"] ;
447 -> 448 ;
449 [label="Duration.to.accept.offer <= 27.5\nentropy = 0.918\nsamples = 18\nvalue = [12, 6]", fillcolor="#f2c09c"] ;
448 -> 449 ;
450 [label="Duration.to.accept.offer <= 5.0\nentropy = 0.469\nsamples = 10\nvalue = [9, 1]", fillcolor="#e88f4f"] ;
449 -> 450 ;
451 [label="entropy = 0.0\nsamples = 1\nvalue = [0, 1]", fillcolor="#399de5"] ;
450 -> 451 ;
452 [label="entropy = 0.0\nsamples = 9\nvalue = [9, 0]", fillcolor="#e58139"] ;
450 -> 452 ;
453 [label="Duration.to.accept.offer <= 47.5\nentropy = 0.954\nsamples = 8\nvalue = [3, 5]", fillcolor="#b0d8f5"] ;
449 -> 453 ;
454 [label="Candidate.Ref <= 2356241.5\nentropy = 0.65\nsamples = 6\nvalue = [1, 5]", fillcolor="#61b1ea"] ;
453 -> 454 ;
455 [label="entropy = 0.0\nsamples = 1\nvalue = [1, 0]", fillcolor="#e58139"] ;
454 -> 455 ;
456 [label="entropy = 0.0\nsamples = 5\nvalue = [0, 5]", fillcolor="#399de5"] ;
454 -> 456 ;
457 [label="entropy = 0.0\nsamples = 2\nvalue = [2, 0]", fillcolor="#e58139"] ;
453 -> 457 ;
458 [label="Percent.hike.offered.in.CTC <= 38.1\nentropy = 0.811\nsamples = 24\nvalue = [6, 18]", fillcolor="#7bbeee"] ;
448 -> 458 ;
459 [label="entropy = 0.0\nsamples = 11\nvalue = [0, 11]", fillcolor="#399de5"] ;
458 -> 459 ;
460 [label="DOJ.Extended_Yes <= 0.5\nentropy = 0.996\nsamples = 13\nvalue = [6, 7]", fillcolor="#e3f1fb"] ;
458 -> 460 ;
461 [label="entropy = 0.0\nsamples = 3\nvalue = [3, 0]", fillcolor="#e58139"] ;
460 -> 461 ;
462 [label="Rex.in.Yrs <= 6.5\nentropy = 0.881\nsamples = 10\nvalue = [3, 7]", fillcolor="#8ec7f0"] ;
460 -> 462 ;
463 [label="LOB_ETS <= 0.5\nentropy = 0.544\nsamples = 8\nvalue = [1, 7]", fillcolor="#55abe9"] ;
462 -> 463 ;
464 [label="entropy = 0.0\nsamples = 7\nvalue = [0, 7]", fillcolor="#399de5"] ;
463 -> 464 ;
465 [label="entropy = 0.0\nsamples = 1\nvalue = [1, 0]", fillcolor="#e58139"] ;
463 -> 465 ;
466 [label="entropy = 0.0\nsamples = 2\nvalue = [2, 0]", fillcolor="#e58139"] ;
462 -> 466 ;
467 [label="entropy = 0.0\nsamples = 5\nvalue = [5, 0]", fillcolor="#e58139"] ;
447 -> 467 ;
468 [label="Candidate.Ref <= 3378077.0\nentropy = 0.544\nsamples = 80\nvalue = [10, 70]", fillcolor="#55abe9"] ;
426 -> 468 ;
469 [label="Candidate.Ref <= 2934253.0\nentropy = 0.439\nsamples = 77\nvalue = [7, 70]", fillcolor="#4da7e8"] ;
468 -> 469 ;
470 [label="Duration.to.accept.offer <= 27.5\nentropy = 0.734\nsamples = 34\nvalue = [7, 27]", fillcolor="#6cb6ec"] ;
469 -> 470 ;
471 [label="Candidate.Ref <= 2254979.0\nentropy = 0.469\nsamples = 30\nvalue = [3, 27]", fillcolor="#4fa8e8"] ;
470 -> 471 ;
472 [label="entropy = 0.0\nsamples = 1\nvalue = [1, 0]", fillcolor="#e58139"] ;
471 -> 472 ;
473 [label="Pecent.hike.expected.in.CTC <= 16.11\nentropy = 0.362\nsamples = 29\nvalue = [2, 27]", fillcolor="#48a4e7"] ;
471 -> 473 ;
474 [label="entropy = 0.0\nsamples = 1\nvalue = [1, 0]", fillcolor="#e58139"] ;
473 -> 474 ;
475 [label="Duration.to.accept.offer <= 22.0\nentropy = 0.222\nsamples = 28\nvalue = [1, 27]", fillcolor="#40a1e6"] ;
473 -> 475 ;
476 [label="entropy = 0.0\nsamples = 23\nvalue = [0, 23]", fillcolor="#399de5"] ;
475 -> 476 ;
477 [label="Percent.hike.offered.in.CTC <= 17.68\nentropy = 0.722\nsamples = 5\nvalue = [1, 4]", fillcolor="#6ab6ec"] ;
475 -> 477 ;
478 [label="entropy = 0.0\nsamples = 1\nvalue = [1, 0]", fillcolor="#e58139"] ;
477 -> 478 ;
479 [label="entropy = 0.0\nsamples = 4\nvalue = [0, 4]", fillcolor="#399de5"] ;
477 -> 479 ;
480 [label="entropy = 0.0\nsamples = 4\nvalue = [4, 0]", fillcolor="#e58139"] ;
470 -> 480 ;
481 [label="entropy = 0.0\nsamples = 43\nvalue = [0, 43]", fillcolor="#399de5"] ;
469 -> 481 ;
482 [label="entropy = 0.0\nsamples = 3\nvalue = [3, 0]", fillcolor="#e58139"] ;
468 -> 482 ;
483 [label="Percent.difference.CTC <= -19.26\nentropy = 0.933\nsamples = 178\nvalue = [116, 62]", fillcolor="#f3c4a3"] ;
199 -> 483 ;
484 [label="Notice.period <= 15.0\nentropy = 1.0\nsamples = 97\nvalue = [48, 49]", fillcolor="#fbfdfe"] ;
483 -> 484 ;
485 [label="entropy = 0.0\nsamples = 10\nvalue = [0, 10]", fillcolor="#399de5"] ;
484 -> 485 ;
486 [label="Duration.to.accept.offer <= 34.5\nentropy = 0.992\nsamples = 87\nvalue = [48, 39]", fillcolor="#fae7da"] ;
484 -> 486 ;
487 [label="Percent.hike.offered.in.CTC <= 24.395\nentropy = 0.959\nsamples = 76\nvalue = [47, 29]", fillcolor="#f5cfb3"] ;
486 -> 487 ;
488 [label="Percent.hike.offered.in.CTC <= -24.77\nentropy = 0.989\nsamples = 66\nvalue = [37, 29]", fillcolor="#f9e4d4"] ;
487 -> 488 ;
489 [label="entropy = 0.0\nsamples = 8\nvalue = [8, 0]", fillcolor="#e58139"] ;
488 -> 489 ;
490 [label="Percent.hike.offered.in.CTC <= -22.255\nentropy = 1.0\nsamples = 58\nvalue = [29, 29]", fillcolor="#ffffff"] ;
488 -> 490 ;
491 [label="entropy = 0.0\nsamples = 5\nvalue = [0, 5]", fillcolor="#399de5"] ;
490 -> 491 ;
492 [label="Rex.in.Yrs <= 3.5\nentropy = 0.994\nsamples = 53\nvalue = [29, 24]", fillcolor="#fbe9dd"] ;
490 -> 492 ;
493 [label="Candidate.Ref <= 3216284.0\nentropy = 0.999\nsamples = 46\nvalue = [22, 24]", fillcolor="#eff7fd"] ;
492 -> 493 ;
494 [label="Candidate.Ref <= 2816349.0\nentropy = 0.952\nsamples = 35\nvalue = [13, 22]", fillcolor="#aed7f4"] ;
493 -> 494 ;
495 [label="Pecent.hike.expected.in.CTC <= 33.91\nentropy = 0.999\nsamples = 23\nvalue = [12, 11]", fillcolor="#fdf5ef"] ;
494 -> 495 ;
496 [label="Pecent.hike.expected.in.CTC <= 22.5\nentropy = 0.65\nsamples = 12\nvalue = [2, 10]", fillcolor="#61b1ea"] ;
495 -> 496 ;
497 [label="entropy = 0.0\nsamples = 2\nvalue = [2, 0]", fillcolor="#e58139"] ;
496 -> 497 ;
498 [label="entropy = 0.0\nsamples = 10\nvalue = [0, 10]", fillcolor="#399de5"] ;
496 -> 498 ;
499 [label="Percent.difference.CTC <= -39.29\nentropy = 0.439\nsamples = 11\nvalue = [10, 1]", fillcolor="#e88e4d"] ;
495 -> 499 ;
500 [label="Gender_Female <= 0.5\nentropy = 1.0\nsamples = 2\nvalue = [1, 1]", fillcolor="#ffffff"] ;
499 -> 500 ;
501 [label="entropy = 0.0\nsamples = 1\nvalue = [0, 1]", fillcolor="#399de5"] ;
500 -> 501 ;
502 [label="entropy = 0.0\nsamples = 1\nvalue = [1, 0]", fillcolor="#e58139"] ;
500 -> 502 ;
503 [label="entropy = 0.0\nsamples = 9\nvalue = [9, 0]", fillcolor="#e58139"] ;
499 -> 503 ;
504 [label="Candidate.Source_Agency <= 0.5\nentropy = 0.414\nsamples = 12\nvalue = [1, 11]", fillcolor="#4ba6e7"] ;
494 -> 504 ;
505 [label="entropy = 0.0\nsamples = 1\nvalue = [1, 0]", fillcolor="#e58139"] ;
504 -> 505 ;
506 [label="entropy = 0.0\nsamples = 11\nvalue = [0, 11]", fillcolor="#399de5"] ;
504 -> 506 ;
507 [label="Offered.band_E1 <= 0.5\nentropy = 0.684\nsamples = 11\nvalue = [9, 2]", fillcolor="#eb9d65"] ;
493 -> 507 ;
508 [label="entropy = 0.0\nsamples = 2\nvalue = [0, 2]", fillcolor="#399de5"] ;
507 -> 508 ;
509 [label="entropy = 0.0\nsamples = 9\nvalue = [9, 0]", fillcolor="#e58139"] ;
507 -> 509 ;
510 [label="entropy = 0.0\nsamples = 7\nvalue = [7, 0]", fillcolor="#e58139"] ;
492 -> 510 ;
511 [label="entropy = 0.0\nsamples = 10\nvalue = [10, 0]", fillcolor="#e58139"] ;
487 -> 511 ;
512 [label="Percent.difference.CTC <= -41.76\nentropy = 0.439\nsamples = 11\nvalue = [1, 10]", fillcolor="#4da7e8"] ;
486 -> 512 ;
513 [label="entropy = 0.0\nsamples = 1\nvalue = [1, 0]", fillcolor="#e58139"] ;
512 -> 513 ;
514 [label="entropy = 0.0\nsamples = 10\nvalue = [0, 10]", fillcolor="#399de5"] ;
512 -> 514 ;
515 [label="Percent.difference.CTC <= -8.515\nentropy = 0.635\nsamples = 81\nvalue = [68, 13]", fillcolor="#ea995f"] ;
483 -> 515 ;
516 [label="Gender_Female <= 0.5\nentropy = 0.154\nsamples = 45\nvalue = [44, 1]", fillcolor="#e6843d"] ;
515 -> 516 ;
517 [label="entropy = 0.0\nsamples = 36\nvalue = [36, 0]", fillcolor="#e58139"] ;
516 -> 517 ;
518 [label="Duration.to.accept.offer <= 6.5\nentropy = 0.503\nsamples = 9\nvalue = [8, 1]", fillcolor="#e89152"] ;
516 -> 518 ;
519 [label="entropy = 0.0\nsamples = 6\nvalue = [6, 0]", fillcolor="#e58139"] ;
518 -> 519 ;
520 [label="Candidate.Ref <= 3295502.5\nentropy = 0.918\nsamples = 3\nvalue = [2, 1]", fillcolor="#f2c09c"] ;
518 -> 520 ;
521 [label="entropy = 0.0\nsamples = 1\nvalue = [0, 1]", fillcolor="#399de5"] ;
520 -> 521 ;
522 [label="entropy = 0.0\nsamples = 2\nvalue = [2, 0]", fillcolor="#e58139"] ;
520 -> 522 ;
523 [label="Candidate.Ref <= 3036127.5\nentropy = 0.918\nsamples = 36\nvalue = [24, 12]", fillcolor="#f2c09c"] ;
515 -> 523 ;
524 [label="Candidate.Ref <= 2789478.5\nentropy = 0.991\nsamples = 27\nvalue = [15, 12]", fillcolor="#fae6d7"] ;
523 -> 524 ;
525 [label="Rex.in.Yrs <= 5.5\nentropy = 0.696\nsamples = 16\nvalue = [13, 3]", fillcolor="#eb9e67"] ;
524 -> 525 ;
526 [label="entropy = 0.0\nsamples = 11\nvalue = [11, 0]", fillcolor="#e58139"] ;
525 -> 526 ;
527 [label="Offered.band_E2 <= 0.5\nentropy = 0.971\nsamples = 5\nvalue = [2, 3]", fillcolor="#bddef6"] ;
525 -> 527 ;
528 [label="entropy = 0.0\nsamples = 2\nvalue = [2, 0]", fillcolor="#e58139"] ;
527 -> 528 ;
529 [label="entropy = 0.0\nsamples = 3\nvalue = [0, 3]", fillcolor="#399de5"] ;
527 -> 529 ;
530 [label="Percent.hike.offered.in.CTC <= 43.75\nentropy = 0.684\nsamples = 11\nvalue = [2, 9]", fillcolor="#65b3eb"] ;
524 -> 530 ;
531 [label="entropy = 0.0\nsamples = 9\nvalue = [0, 9]", fillcolor="#399de5"] ;
530 -> 531 ;
532 [label="entropy = 0.0\nsamples = 2\nvalue = [2, 0]", fillcolor="#e58139"] ;
530 -> 532 ;
533 [label="entropy = 0.0\nsamples = 9\nvalue = [9, 0]", fillcolor="#e58139"] ;
523 -> 533 ;
534 [label="Joining.Bonus_Yes <= 0.5\nentropy = 0.974\nsamples = 1903\nvalue = [1131, 772]", fillcolor="#f7d7c0"] ;
198 -> 534 ;
535 [label="Offered.band_E0 <= 0.5\nentropy = 0.968\nsamples = 1847\nvalue = [1118, 729]", fillcolor="#f6d3ba"] ;
534 -> 535 ;
536 [label="Rex.in.Yrs <= 4.5\nentropy = 0.953\nsamples = 1674\nvalue = [1049, 625]", fillcolor="#f4ccaf"] ;
535 -> 536 ;
537 [label="Duration.to.accept.offer <= 59.5\nentropy = 0.921\nsamples = 1150\nvalue = [764, 386]", fillcolor="#f2c19d"] ;
536 -> 537 ;
538 [label="Percent.hike.offered.in.CTC <= 155.035\nentropy = 0.927\nsamples = 1126\nvalue = [740, 386]", fillcolor="#f3c3a0"] ;
537 -> 538 ;
539 [label="Duration.to.accept.offer <= 18.5\nentropy = 0.933\nsamples = 1106\nvalue = [720, 386]", fillcolor="#f3c5a3"] ;
538 -> 539 ;
540 [label="Offered.band_E1 <= 0.5\nentropy = 0.966\nsamples = 665\nvalue = [404, 261]", fillcolor="#f6d2b9"] ;
539 -> 540 ;
541 [label="Duration.to.accept.offer <= 3.5\nentropy = 0.644\nsamples = 61\nvalue = [51, 10]", fillcolor="#ea9a60"] ;
540 -> 541 ;
542 [label="entropy = 0.0\nsamples = 25\nvalue = [25, 0]", fillcolor="#e58139"] ;
541 -> 542 ;
543 [label="Percent.hike.offered.in.CTC <= 82.855\nentropy = 0.852\nsamples = 36\nvalue = [26, 10]", fillcolor="#efb185"] ;
541 -> 543 ;
544 [label="Duration.to.accept.offer <= 14.5\nentropy = 0.65\nsamples = 30\nvalue = [25, 5]", fillcolor="#ea9a61"] ;
543 -> 544 ;
545 [label="LOB_ETS <= 0.5\nentropy = 0.391\nsamples = 26\nvalue = [24, 2]", fillcolor="#e78c49"] ;
544 -> 545 ;
546 [label="entropy = 0.0\nsamples = 24\nvalue = [24, 0]", fillcolor="#e58139"] ;
545 -> 546 ;
547 [label="entropy = 0.0\nsamples = 2\nvalue = [0, 2]", fillcolor="#399de5"] ;
545 -> 547 ;
548 [label="Candidate.Source_Agency <= 0.5\nentropy = 0.811\nsamples = 4\nvalue = [1, 3]", fillcolor="#7bbeee"] ;
544 -> 548 ;
549 [label="entropy = 0.0\nsamples = 3\nvalue = [0, 3]", fillcolor="#399de5"] ;
548 -> 549 ;
550 [label="entropy = 0.0\nsamples = 1\nvalue = [1, 0]", fillcolor="#e58139"] ;
548 -> 550 ;
551 [label="Percent.difference.CTC <= 7.005\nentropy = 0.65\nsamples = 6\nvalue = [1, 5]", fillcolor="#61b1ea"] ;
543 -> 551 ;
552 [label="entropy = 0.0\nsamples = 1\nvalue = [1, 0]", fillcolor="#e58139"] ;
551 -> 552 ;
553 [label="entropy = 0.0\nsamples = 5\nvalue = [0, 5]", fillcolor="#399de5"] ;
551 -> 553 ;
554 [label="Location_Mumbai <= 0.5\nentropy = 0.979\nsamples = 604\nvalue = [353, 251]", fillcolor="#f7dbc6"] ;
540 -> 554 ;
555 [label="LOB_ERS <= 0.5\nentropy = 0.985\nsamples = 584\nvalue = [334, 250]", fillcolor="#f8dfcd"] ;
554 -> 555 ;
556 [label="Candidate.Ref <= 3377130.0\nentropy = 0.998\nsamples = 433\nvalue = [227, 206]", fillcolor="#fdf3ed"] ;
555 -> 556 ;
557 [label="Percent.hike.offered.in.CTC <= 34.275\nentropy = 0.985\nsamples = 367\nvalue = [210, 157]", fillcolor="#f8dfcd"] ;
556 -> 557 ;
558 [label="Candidate.Ref <= 2814019.5\nentropy = 0.884\nsamples = 152\nvalue = [106, 46]", fillcolor="#f0b88f"] ;
557 -> 558 ;
559 [label="Candidate.Ref <= 2783717.0\nentropy = 0.973\nsamples = 99\nvalue = [59, 40]", fillcolor="#f7d6bf"] ;
558 -> 559 ;
560 [label="Duration.to.accept.offer <= 10.5\nentropy = 0.936\nsamples = 91\nvalue = [59, 32]", fillcolor="#f3c5a4"] ;
559 -> 560 ;
561 [label="Pecent.hike.expected.in.CTC <= 29.24\nentropy = 0.991\nsamples = 72\nvalue = [40, 32]", fillcolor="#fae6d7"] ;
560 -> 561 ;
562 [label="Percent.hike.offered.in.CTC <= 21.525\nentropy = 0.918\nsamples = 51\nvalue = [34, 17]", fillcolor="#f2c09c"] ;
561 -> 562 ;
563 [label="Candidate.Ref <= 2421859.5\nentropy = 0.999\nsamples = 33\nvalue = [16, 17]", fillcolor="#f3f9fd"] ;
562 -> 563 ;
564 [label="Pecent.hike.expected.in.CTC <= 1.49\nentropy = 0.904\nsamples = 25\nvalue = [8, 17]", fillcolor="#96cbf1"] ;
563 -> 564 ;
565 [label="entropy = 0.0\nsamples = 3\nvalue = [3, 0]", fillcolor="#e58139"] ;
564 -> 565 ;
566 [label="Age <= 26.5\nentropy = 0.773\nsamples = 22\nvalue = [5, 17]", fillcolor="#73baed"] ;
564 -> 566 ;
567 [label="Age <= 25.5\nentropy = 0.961\nsamples = 13\nvalue = [5, 8]", fillcolor="#b5daf5"] ;
566 -> 567 ;
568 [label="Pecent.hike.expected.in.CTC <= 20.505\nentropy = 0.722\nsamples = 10\nvalue = [2, 8]", fillcolor="#6ab6ec"] ;
567 -> 568 ;
569 [label="Age <= 24.5\nentropy = 0.503\nsamples = 9\nvalue = [1, 8]", fillcolor="#52a9e8"] ;
568 -> 569 ;
570 [label="entropy = 0.0\nsamples = 1\nvalue = [1, 0]", fillcolor="#e58139"] ;
569 -> 570 ;
571 [label="entropy = 0.0\nsamples = 8\nvalue = [0, 8]", fillcolor="#399de5"] ;
569 -> 571 ;
572 [label="entropy = 0.0\nsamples = 1\nvalue = [1, 0]", fillcolor="#e58139"] ;
568 -> 572 ;
573 [label="entropy = 0.0\nsamples = 3\nvalue = [3, 0]", fillcolor="#e58139"] ;
567 -> 573 ;
574 [label="entropy = 0.0\nsamples = 9\nvalue = [0, 9]", fillcolor="#399de5"] ;
566 -> 574 ;
575 [label="entropy = 0.0\nsamples = 8\nvalue = [8, 0]", fillcolor="#e58139"] ;
563 -> 575 ;
576 [label="entropy = 0.0\nsamples = 18\nvalue = [18, 0]", fillcolor="#e58139"] ;
562 -> 576 ;
577 [label="Age <= 27.5\nentropy = 0.863\nsamples = 21\nvalue = [6, 15]", fillcolor="#88c4ef"] ;
561 -> 577 ;
578 [label="entropy = 0.0\nsamples = 11\nvalue = [0, 11]", fillcolor="#399de5"] ;
577 -> 578 ;
579 [label="Candidate.Ref <= 2393812.5\nentropy = 0.971\nsamples = 10\nvalue = [6, 4]", fillcolor="#f6d5bd"] ;
577 -> 579 ;
580 [label="entropy = 0.0\nsamples = 4\nvalue = [0, 4]", fillcolor="#399de5"] ;
579 -> 580 ;
581 [label="entropy = 0.0\nsamples = 6\nvalue = [6, 0]", fillcolor="#e58139"] ;
579 -> 581 ;
582 [label="entropy = 0.0\nsamples = 19\nvalue = [19, 0]", fillcolor="#e58139"] ;
560 -> 582 ;
583 [label="entropy = 0.0\nsamples = 8\nvalue = [0, 8]", fillcolor="#399de5"] ;
559 -> 583 ;
584 [label="Age <= 26.5\nentropy = 0.51\nsamples = 53\nvalue = [47, 6]", fillcolor="#e89152"] ;
558 -> 584 ;
585 [label="Pecent.hike.expected.in.CTC <= 17.155\nentropy = 0.779\nsamples = 26\nvalue = [20, 6]", fillcolor="#eda774"] ;
584 -> 585 ;
586 [label="Duration.to.accept.offer <= 4.5\nentropy = 0.954\nsamples = 8\nvalue = [3, 5]", fillcolor="#b0d8f5"] ;
585 -> 586 ;
587 [label="entropy = 0.0\nsamples = 2\nvalue = [2, 0]", fillcolor="#e58139"] ;
586 -> 587 ;
588 [label="Percent.hike.offered.in.CTC <= -7.045\nentropy = 0.65\nsamples = 6\nvalue = [1, 5]", fillcolor="#61b1ea"] ;
586 -> 588 ;
589 [label="entropy = 0.0\nsamples = 1\nvalue = [1, 0]", fillcolor="#e58139"] ;
588 -> 589 ;
590 [label="entropy = 0.0\nsamples = 5\nvalue = [0, 5]", fillcolor="#399de5"] ;
588 -> 590 ;
591 [label="LOB_ETS <= 0.5\nentropy = 0.31\nsamples = 18\nvalue = [17, 1]", fillcolor="#e78845"] ;
585 -> 591 ;
592 [label="entropy = 0.0\nsamples = 17\nvalue = [17, 0]", fillcolor="#e58139"] ;
591 -> 592 ;
593 [label="entropy = 0.0\nsamples = 1\nvalue = [0, 1]", fillcolor="#399de5"] ;
591 -> 593 ;
594 [label="entropy = 0.0\nsamples = 27\nvalue = [27, 0]", fillcolor="#e58139"] ;
584 -> 594 ;
595 [label="Candidate.Ref <= 2183203.0\nentropy = 0.999\nsamples = 215\nvalue = [104, 111]", fillcolor="#f3f9fd"] ;
557 -> 595 ;
596 [label="entropy = 0.0\nsamples = 12\nvalue = [0, 12]", fillcolor="#399de5"] ;
595 -> 596 ;
597 [label="Duration.to.accept.offer <= 13.5\nentropy = 1.0\nsamples = 203\nvalue = [104, 99]", fillcolor="#fef9f5"] ;
595 -> 597 ;
598 [label="Pecent.hike.expected.in.CTC <= 32.455\nentropy = 0.99\nsamples = 170\nvalue = [95, 75]", fillcolor="#fae4d5"] ;
597 -> 598 ;
599 [label="entropy = 0.0\nsamples = 9\nvalue = [9, 0]", fillcolor="#e58139"] ;
598 -> 599 ;
600 [label="Pecent.hike.expected.in.CTC <= 93.065\nentropy = 0.997\nsamples = 161\nvalue = [86, 75]", fillcolor="#fcefe6"] ;
598 -> 600 ;
601 [label="Pecent.hike.expected.in.CTC <= 38.41\nentropy = 0.99\nsamples = 152\nvalue = [85, 67]", fillcolor="#f9e4d5"] ;
600 -> 601 ;
602 [label="Duration.to.accept.offer <= 11.5\nentropy = 0.918\nsamples = 36\nvalue = [12, 24]", fillcolor="#9ccef2"] ;
601 -> 602 ;
603 [label="LOB_ETS <= 0.5\nentropy = 0.845\nsamples = 33\nvalue = [9, 24]", fillcolor="#83c2ef"] ;
602 -> 603 ;
604 [label="Location_Hyderabad <= 0.5\nentropy = 0.722\nsamples = 30\nvalue = [6, 24]", fillcolor="#6ab6ec"] ;
603 -> 604 ;
605 [label="Pecent.hike.expected.in.CTC <= 36.305\nentropy = 0.592\nsamples = 28\nvalue = [4, 24]", fillcolor="#5aade9"] ;
604 -> 605 ;
606 [label="Duration.to.accept.offer <= 4.5\nentropy = 0.787\nsamples = 17\nvalue = [4, 13]", fillcolor="#76bbed"] ;
605 -> 606 ;
607 [label="LOB_Healthcare <= 0.5\nentropy = 0.371\nsamples = 14\nvalue = [1, 13]", fillcolor="#48a5e7"] ;
606 -> 607 ;
608 [label="entropy = 0.0\nsamples = 13\nvalue = [0, 13]", fillcolor="#399de5"] ;
607 -> 608 ;
609 [label="entropy = 0.0\nsamples = 1\nvalue = [1, 0]", fillcolor="#e58139"] ;
607 -> 609 ;
610 [label="entropy = 0.0\nsamples = 3\nvalue = [3, 0]", fillcolor="#e58139"] ;
606 -> 610 ;
611 [label="entropy = 0.0\nsamples = 11\nvalue = [0, 11]", fillcolor="#399de5"] ;
605 -> 611 ;
612 [label="entropy = 0.0\nsamples = 2\nvalue = [2, 0]", fillcolor="#e58139"] ;
604 -> 612 ;
613 [label="entropy = 0.0\nsamples = 3\nvalue = [3, 0]", fillcolor="#e58139"] ;
603 -> 613 ;
614 [label="entropy = 0.0\nsamples = 3\nvalue = [3, 0]", fillcolor="#e58139"] ;
602 -> 614 ;
615 [label="Percent.hike.offered.in.CTC <= 36.645\nentropy = 0.951\nsamples = 116\nvalue = [73, 43]", fillcolor="#f4cbae"] ;
601 -> 615 ;
616 [label="entropy = 0.0\nsamples = 3\nvalue = [0, 3]", fillcolor="#399de5"] ;
615 -> 616 ;
617 [label="DOJ.Extended_No <= 0.5\nentropy = 0.938\nsamples = 113\nvalue = [73, 40]", fillcolor="#f3c6a5"] ;
615 -> 617 ;
618 [label="Duration.to.accept.offer <= 6.5\nentropy = 0.65\nsamples = 36\nvalue = [30, 6]", fillcolor="#ea9a61"] ;
617 -> 618 ;
619 [label="entropy = 0.0\nsamples = 18\nvalue = [18, 0]", fillcolor="#e58139"] ;
618 -> 619 ;
620 [label="Duration.to.accept.offer <= 8.5\nentropy = 0.918\nsamples = 18\nvalue = [12, 6]", fillcolor="#f2c09c"] ;
618 -> 620 ;
621 [label="Pecent.hike.expected.in.CTC <= 43.65\nentropy = 0.811\nsamples = 8\nvalue = [2, 6]", fillcolor="#7bbeee"] ;
620 -> 621 ;
622 [label="entropy = 0.0\nsamples = 2\nvalue = [2, 0]", fillcolor="#e58139"] ;
621 -> 622 ;
623 [label="entropy = 0.0\nsamples = 6\nvalue = [0, 6]", fillcolor="#399de5"] ;
621 -> 623 ;
624 [label="entropy = 0.0\nsamples = 10\nvalue = [10, 0]", fillcolor="#e58139"] ;
620 -> 624 ;
625 [label="Percent.hike.offered.in.CTC <= 60.555\nentropy = 0.99\nsamples = 77\nvalue = [43, 34]", fillcolor="#fae5d6"] ;
617 -> 625 ;
626 [label="Duration.to.accept.offer <= 3.5\nentropy = 0.872\nsamples = 41\nvalue = [29, 12]", fillcolor="#f0b58b"] ;
625 -> 626 ;
627 [label="LOB_CSMP <= 0.5\nentropy = 0.323\nsamples = 17\nvalue = [16, 1]", fillcolor="#e78945"] ;
626 -> 627 ;
628 [label="entropy = 0.0\nsamples = 13\nvalue = [13, 0]", fillcolor="#e58139"] ;
627 -> 628 ;
629 [label="Age <= 27.5\nentropy = 0.811\nsamples = 4\nvalue = [3, 1]", fillcolor="#eeab7b"] ;
627 -> 629 ;
630 [label="entropy = 0.0\nsamples = 1\nvalue = [0, 1]", fillcolor="#399de5"] ;
629 -> 630 ;
631 [label="entropy = 0.0\nsamples = 3\nvalue = [3, 0]", fillcolor="#e58139"] ;
629 -> 631 ;
632 [label="Age <= 30.5\nentropy = 0.995\nsamples = 24\nvalue = [13, 11]", fillcolor="#fbece1"] ;
626 -> 632 ;
633 [label="Rex.in.Yrs <= 3.5\nentropy = 0.934\nsamples = 20\nvalue = [13, 7]", fillcolor="#f3c5a4"] ;
632 -> 633 ;
634 [label="Duration.to.accept.offer <= 8.0\nentropy = 1.0\nsamples = 14\nvalue = [7, 7]", fillcolor="#ffffff"] ;
633 -> 634 ;
635 [label="Candidate.Ref <= 2364650.0\nentropy = 0.881\nsamples = 10\nvalue = [3, 7]", fillcolor="#8ec7f0"] ;
634 -> 635 ;
636 [label="Duration.to.accept.offer <= 6.0\nentropy = 0.811\nsamples = 4\nvalue = [3, 1]", fillcolor="#eeab7b"] ;
635 -> 636 ;
637 [label="entropy = 0.0\nsamples = 3\nvalue = [3, 0]", fillcolor="#e58139"] ;
636 -> 637 ;
638 [label="entropy = 0.0\nsamples = 1\nvalue = [0, 1]", fillcolor="#399de5"] ;
636 -> 638 ;
639 [label="entropy = 0.0\nsamples = 6\nvalue = [0, 6]", fillcolor="#399de5"] ;
635 -> 639 ;
640 [label="entropy = 0.0\nsamples = 4\nvalue = [4, 0]", fillcolor="#e58139"] ;
634 -> 640 ;
641 [label="entropy = 0.0\nsamples = 6\nvalue = [6, 0]", fillcolor="#e58139"] ;
633 -> 641 ;
642 [label="entropy = 0.0\nsamples = 4\nvalue = [0, 4]", fillcolor="#399de5"] ;
632 -> 642 ;
643 [label="Percent.hike.offered.in.CTC <= 88.445\nentropy = 0.964\nsamples = 36\nvalue = [14, 22]", fillcolor="#b7dbf6"] ;
625 -> 643 ;
644 [label="Duration.to.accept.offer <= 8.0\nentropy = 0.896\nsamples = 32\nvalue = [10, 22]", fillcolor="#93caf1"] ;
643 -> 644 ;
645 [label="Percent.hike.offered.in.CTC <= 62.02\nentropy = 0.98\nsamples = 24\nvalue = [10, 14]", fillcolor="#c6e3f8"] ;
644 -> 645 ;
646 [label="entropy = 0.0\nsamples = 5\nvalue = [0, 5]", fillcolor="#399de5"] ;
645 -> 646 ;
647 [label="Pecent.hike.expected.in.CTC <= 67.23\nentropy = 0.998\nsamples = 19\nvalue = [10, 9]", fillcolor="#fcf2eb"] ;
645 -> 647 ;
648 [label="entropy = 0.0\nsamples = 6\nvalue = [6, 0]", fillcolor="#e58139"] ;
647 -> 648 ;
649 [label="Age <= 25.5\nentropy = 0.89\nsamples = 13\nvalue = [4, 9]", fillcolor="#91c9f1"] ;
647 -> 649 ;
650 [label="entropy = 0.0\nsamples = 6\nvalue = [0, 6]", fillcolor="#399de5"] ;
649 -> 650 ;
651 [label="Candidate.Ref <= 3301242.5\nentropy = 0.985\nsamples = 7\nvalue = [4, 3]", fillcolor="#f8e0ce"] ;
649 -> 651 ;
652 [label="entropy = 0.0\nsamples = 4\nvalue = [4, 0]", fillcolor="#e58139"] ;
651 -> 652 ;
653 [label="entropy = 0.0\nsamples = 3\nvalue = [0, 3]", fillcolor="#399de5"] ;
651 -> 653 ;
654 [label="entropy = 0.0\nsamples = 8\nvalue = [0, 8]", fillcolor="#399de5"] ;
644 -> 654 ;
655 [label="entropy = 0.0\nsamples = 4\nvalue = [4, 0]", fillcolor="#e58139"] ;
643 -> 655 ;
656 [label="Percent.hike.offered.in.CTC <= 91.52\nentropy = 0.503\nsamples = 9\nvalue = [1, 8]", fillcolor="#52a9e8"] ;
600 -> 656 ;
657 [label="entropy = 0.0\nsamples = 1\nvalue = [1, 0]", fillcolor="#e58139"] ;
656 -> 657 ;
658 [label="entropy = 0.0\nsamples = 8\nvalue = [0, 8]", fillcolor="#399de5"] ;
656 -> 658 ;
659 [label="Age <= 25.5\nentropy = 0.845\nsamples = 33\nvalue = [9, 24]", fillcolor="#83c2ef"] ;
597 -> 659 ;
660 [label="Pecent.hike.expected.in.CTC <= 64.635\nentropy = 0.811\nsamples = 8\nvalue = [6, 2]", fillcolor="#eeab7b"] ;
659 -> 660 ;
661 [label="entropy = 0.0\nsamples = 5\nvalue = [5, 0]", fillcolor="#e58139"] ;
660 -> 661 ;
662 [label="Duration.to.accept.offer <= 14.5\nentropy = 0.918\nsamples = 3\nvalue = [1, 2]", fillcolor="#9ccef2"] ;
660 -> 662 ;
663 [label="entropy = 0.0\nsamples = 1\nvalue = [1, 0]", fillcolor="#e58139"] ;
662 -> 663 ;
664 [label="entropy = 0.0\nsamples = 2\nvalue = [0, 2]", fillcolor="#399de5"] ;
662 -> 664 ;
665 [label="Age <= 32.0\nentropy = 0.529\nsamples = 25\nvalue = [3, 22]", fillcolor="#54aae9"] ;
659 -> 665 ;
666 [label="Rex.in.Yrs <= 3.5\nentropy = 0.414\nsamples = 24\nvalue = [2, 22]", fillcolor="#4ba6e7"] ;
665 -> 666 ;
667 [label="Percent.hike.offered.in.CTC <= 66.7\nentropy = 0.258\nsamples = 23\nvalue = [1, 22]", fillcolor="#42a1e6"] ;
666 -> 667 ;
668 [label="entropy = 0.0\nsamples = 18\nvalue = [0, 18]", fillcolor="#399de5"] ;
667 -> 668 ;
669 [label="Candidate.Ref <= 3050861.0\nentropy = 0.722\nsamples = 5\nvalue = [1, 4]", fillcolor="#6ab6ec"] ;
667 -> 669 ;
670 [label="entropy = 0.0\nsamples = 1\nvalue = [1, 0]", fillcolor="#e58139"] ;
669 -> 670 ;
671 [label="entropy = 0.0\nsamples = 4\nvalue = [0, 4]", fillcolor="#399de5"] ;
669 -> 671 ;
672 [label="entropy = 0.0\nsamples = 1\nvalue = [1, 0]", fillcolor="#e58139"] ;
666 -> 672 ;
673 [label="entropy = 0.0\nsamples = 1\nvalue = [1, 0]", fillcolor="#e58139"] ;
665 -> 673 ;
674 [label="Candidate.Source_Direct <= 0.5\nentropy = 0.823\nsamples = 66\nvalue = [17, 49]", fillcolor="#7ebfee"] ;
556 -> 674 ;
675 [label="LOB_CSMP <= 0.5\nentropy = 0.323\nsamples = 34\nvalue = [2, 32]", fillcolor="#45a3e7"] ;
674 -> 675 ;
676 [label="entropy = 0.0\nsamples = 32\nvalue = [0, 32]", fillcolor="#399de5"] ;
675 -> 676 ;
677 [label="entropy = 0.0\nsamples = 2\nvalue = [2, 0]", fillcolor="#e58139"] ;
675 -> 677 ;
678 [label="Duration.to.accept.offer <= 4.5\nentropy = 0.997\nsamples = 32\nvalue = [15, 17]", fillcolor="#e8f3fc"] ;
674 -> 678 ;
679 [label="Candidate.Ref <= 3423995.0\nentropy = 0.773\nsamples = 22\nvalue = [5, 17]", fillcolor="#73baed"] ;
678 -> 679 ;
680 [label="Percent.difference.CTC <= 7.18\nentropy = 0.371\nsamples = 14\nvalue = [1, 13]", fillcolor="#48a5e7"] ;
679 -> 680 ;
681 [label="entropy = 0.0\nsamples = 13\nvalue = [0, 13]", fillcolor="#399de5"] ;
680 -> 681 ;
682 [label="entropy = 0.0\nsamples = 1\nvalue = [1, 0]", fillcolor="#e58139"] ;
680 -> 682 ;
683 [label="Percent.hike.offered.in.CTC <= 41.445\nentropy = 1.0\nsamples = 8\nvalue = [4, 4]", fillcolor="#ffffff"] ;
679 -> 683 ;
684 [label="Pecent.hike.expected.in.CTC <= 37.265\nentropy = 0.722\nsamples = 5\nvalue = [4, 1]", fillcolor="#eca06a"] ;
683 -> 684 ;
685 [label="entropy = 0.0\nsamples = 4\nvalue = [4, 0]", fillcolor="#e58139"] ;
684 -> 685 ;
686 [label="entropy = 0.0\nsamples = 1\nvalue = [0, 1]", fillcolor="#399de5"] ;
684 -> 686 ;
687 [label="entropy = 0.0\nsamples = 3\nvalue = [0, 3]", fillcolor="#399de5"] ;
683 -> 687 ;
688 [label="entropy = 0.0\nsamples = 10\nvalue = [10, 0]", fillcolor="#e58139"] ;
678 -> 688 ;
689 [label="Age <= 28.5\nentropy = 0.871\nsamples = 151\nvalue = [107, 44]", fillcolor="#f0b58a"] ;
555 -> 689 ;
690 [label="Location_Bangalore <= 0.5\nentropy = 0.938\nsamples = 124\nvalue = [80, 44]", fillcolor="#f3c6a6"] ;
689 -> 690 ;
691 [label="Age <= 24.5\nentropy = 1.0\nsamples = 85\nvalue = [43, 42]", fillcolor="#fefcfa"] ;
690 -> 691 ;
692 [label="entropy = 0.0\nsamples = 13\nvalue = [13, 0]", fillcolor="#e58139"] ;
691 -> 692 ;
693 [label="Age <= 26.5\nentropy = 0.98\nsamples = 72\nvalue = [30, 42]", fillcolor="#c6e3f8"] ;
691 -> 693 ;
694 [label="Candidate.Ref <= 3253607.5\nentropy = 0.851\nsamples = 47\nvalue = [13, 34]", fillcolor="#85c2ef"] ;
693 -> 694 ;
695 [label="Duration.to.accept.offer <= 9.0\nentropy = 0.944\nsamples = 36\nvalue = [13, 23]", fillcolor="#a9d4f4"] ;
694 -> 695 ;
696 [label="Percent.difference.CTC <= -1.25\nentropy = 0.857\nsamples = 32\nvalue = [9, 23]", fillcolor="#86c3ef"] ;
695 -> 696 ;
697 [label="entropy = 0.0\nsamples = 3\nvalue = [3, 0]", fillcolor="#e58139"] ;
696 -> 697 ;
698 [label="Duration.to.accept.offer <= 6.5\nentropy = 0.736\nsamples = 29\nvalue = [6, 23]", fillcolor="#6db7ec"] ;
696 -> 698 ;
699 [label="Pecent.hike.expected.in.CTC <= 8.75\nentropy = 0.863\nsamples = 21\nvalue = [6, 15]", fillcolor="#88c4ef"] ;
698 -> 699 ;
700 [label="entropy = 0.0\nsamples = 6\nvalue = [0, 6]", fillcolor="#399de5"] ;
699 -> 700 ;
701 [label="Age <= 25.5\nentropy = 0.971\nsamples = 15\nvalue = [6, 9]", fillcolor="#bddef6"] ;
699 -> 701 ;
702 [label="Percent.hike.offered.in.CTC <= 117.8\nentropy = 0.863\nsamples = 7\nvalue = [5, 2]", fillcolor="#efb388"] ;
701 -> 702 ;
703 [label="entropy = 0.0\nsamples = 5\nvalue = [5, 0]", fillcolor="#e58139"] ;
702 -> 703 ;
704 [label="entropy = 0.0\nsamples = 2\nvalue = [0, 2]", fillcolor="#399de5"] ;
702 -> 704 ;
705 [label="Candidate.Ref <= 2450180.5\nentropy = 0.544\nsamples = 8\nvalue = [1, 7]", fillcolor="#55abe9"] ;
701 -> 705 ;
706 [label="entropy = 0.0\nsamples = 7\nvalue = [0, 7]", fillcolor="#399de5"] ;
705 -> 706 ;
707 [label="entropy = 0.0\nsamples = 1\nvalue = [1, 0]", fillcolor="#e58139"] ;
705 -> 707 ;
708 [label="entropy = 0.0\nsamples = 8\nvalue = [0, 8]", fillcolor="#399de5"] ;
698 -> 708 ;
709 [label="entropy = 0.0\nsamples = 4\nvalue = [4, 0]", fillcolor="#e58139"] ;
695 -> 709 ;
710 [label="entropy = 0.0\nsamples = 11\nvalue = [0, 11]", fillcolor="#399de5"] ;
694 -> 710 ;
711 [label="Duration.to.accept.offer <= 9.5\nentropy = 0.904\nsamples = 25\nvalue = [17, 8]", fillcolor="#f1bc96"] ;
693 -> 711 ;
712 [label="Duration.to.accept.offer <= 2.5\nentropy = 0.371\nsamples = 14\nvalue = [13, 1]", fillcolor="#e78b48"] ;
711 -> 712 ;
713 [label="Age <= 27.5\nentropy = 0.918\nsamples = 3\nvalue = [2, 1]", fillcolor="#f2c09c"] ;
712 -> 713 ;
714 [label="entropy = 0.0\nsamples = 2\nvalue = [2, 0]", fillcolor="#e58139"] ;
713 -> 714 ;
715 [label="entropy = 0.0\nsamples = 1\nvalue = [0, 1]", fillcolor="#399de5"] ;
713 -> 715 ;
716 [label="entropy = 0.0\nsamples = 11\nvalue = [11, 0]", fillcolor="#e58139"] ;
712 -> 716 ;
717 [label="Candidate.Ref <= 2664848.5\nentropy = 0.946\nsamples = 11\nvalue = [4, 7]", fillcolor="#aad5f4"] ;
711 -> 717 ;
718 [label="Candidate.Ref <= 2206359.0\nentropy = 0.722\nsamples = 5\nvalue = [4, 1]", fillcolor="#eca06a"] ;
717 -> 718 ;
719 [label="entropy = 0.0\nsamples = 1\nvalue = [0, 1]", fillcolor="#399de5"] ;
718 -> 719 ;
720 [label="entropy = 0.0\nsamples = 4\nvalue = [4, 0]", fillcolor="#e58139"] ;
718 -> 720 ;
721 [label="entropy = 0.0\nsamples = 6\nvalue = [0, 6]", fillcolor="#399de5"] ;
717 -> 721 ;
722 [label="Duration.to.accept.offer <= 3.0\nentropy = 0.292\nsamples = 39\nvalue = [37, 2]", fillcolor="#e68844"] ;
690 -> 722 ;
723 [label="Rex.in.Yrs <= 0.5\nentropy = 0.971\nsamples = 5\nvalue = [3, 2]", fillcolor="#f6d5bd"] ;
722 -> 723 ;
724 [label="entropy = 0.0\nsamples = 2\nvalue = [0, 2]", fillcolor="#399de5"] ;
723 -> 724 ;
725 [label="entropy = 0.0\nsamples = 3\nvalue = [3, 0]", fillcolor="#e58139"] ;
723 -> 725 ;
726 [label="entropy = 0.0\nsamples = 34\nvalue = [34, 0]", fillcolor="#e58139"] ;
722 -> 726 ;
727 [label="entropy = 0.0\nsamples = 27\nvalue = [27, 0]", fillcolor="#e58139"] ;
689 -> 727 ;
728 [label="Percent.hike.offered.in.CTC <= 30.555\nentropy = 0.286\nsamples = 20\nvalue = [19, 1]", fillcolor="#e68843"] ;
554 -> 728 ;
729 [label="entropy = 0.0\nsamples = 1\nvalue = [0, 1]", fillcolor="#399de5"] ;
728 -> 729 ;
730 [label="entropy = 0.0\nsamples = 19\nvalue = [19, 0]", fillcolor="#e58139"] ;
728 -> 730 ;
731 [label="Age <= 26.5\nentropy = 0.86\nsamples = 441\nvalue = [316, 125]", fillcolor="#efb387"] ;
539 -> 731 ;
732 [label="Percent.hike.offered.in.CTC <= 34.6\nentropy = 0.554\nsamples = 132\nvalue = [115, 17]", fillcolor="#e99456"] ;
731 -> 732 ;
733 [label="entropy = 0.0\nsamples = 41\nvalue = [41, 0]", fillcolor="#e58139"] ;
732 -> 733 ;
734 [label="Percent.hike.offered.in.CTC <= 34.86\nentropy = 0.695\nsamples = 91\nvalue = [74, 17]", fillcolor="#eb9e66"] ;
732 -> 734 ;
735 [label="entropy = 0.0\nsamples = 3\nvalue = [0, 3]", fillcolor="#399de5"] ;
734 -> 735 ;
736 [label="Duration.to.accept.offer <= 45.0\nentropy = 0.632\nsamples = 88\nvalue = [74, 14]", fillcolor="#ea995e"] ;
734 -> 736 ;
737 [label="Rex.in.Yrs <= 2.5\nentropy = 0.705\nsamples = 73\nvalue = [59, 14]", fillcolor="#eb9f68"] ;
736 -> 737 ;
738 [label="Percent.difference.CTC <= 17.69\nentropy = 0.406\nsamples = 37\nvalue = [34, 3]", fillcolor="#e78c4a"] ;
737 -> 738 ;
739 [label="entropy = 0.0\nsamples = 27\nvalue = [27, 0]", fillcolor="#e58139"] ;
738 -> 739 ;
740 [label="Rex.in.Yrs <= 1.5\nentropy = 0.881\nsamples = 10\nvalue = [7, 3]", fillcolor="#f0b78e"] ;
738 -> 740 ;
741 [label="Age <= 23.0\nentropy = 0.544\nsamples = 8\nvalue = [7, 1]", fillcolor="#e99355"] ;
740 -> 741 ;
742 [label="entropy = 0.0\nsamples = 1\nvalue = [0, 1]", fillcolor="#399de5"] ;
741 -> 742 ;
743 [label="entropy = 0.0\nsamples = 7\nvalue = [7, 0]", fillcolor="#e58139"] ;
741 -> 743 ;
744 [label="entropy = 0.0\nsamples = 2\nvalue = [0, 2]", fillcolor="#399de5"] ;
740 -> 744 ;
745 [label="LOB_ERS <= 0.5\nentropy = 0.888\nsamples = 36\nvalue = [25, 11]", fillcolor="#f0b890"] ;
737 -> 745 ;
746 [label="Candidate.Ref <= 2817420.0\nentropy = 0.663\nsamples = 29\nvalue = [24, 5]", fillcolor="#ea9b62"] ;
745 -> 746 ;
747 [label="Candidate.Ref <= 2804288.0\nentropy = 0.98\nsamples = 12\nvalue = [7, 5]", fillcolor="#f8dbc6"] ;
746 -> 747 ;
748 [label="Candidate.Ref <= 2413783.0\nentropy = 0.764\nsamples = 9\nvalue = [7, 2]", fillcolor="#eca572"] ;
747 -> 748 ;
749 [label="Duration.to.accept.offer <= 29.5\nentropy = 0.918\nsamples = 3\nvalue = [1, 2]", fillcolor="#9ccef2"] ;
748 -> 749 ;
750 [label="entropy = 0.0\nsamples = 2\nvalue = [0, 2]", fillcolor="#399de5"] ;
749 -> 750 ;
751 [label="entropy = 0.0\nsamples = 1\nvalue = [1, 0]", fillcolor="#e58139"] ;
749 -> 751 ;
752 [label="entropy = 0.0\nsamples = 6\nvalue = [6, 0]", fillcolor="#e58139"] ;
748 -> 752 ;
753 [label="entropy = 0.0\nsamples = 3\nvalue = [0, 3]", fillcolor="#399de5"] ;
747 -> 753 ;
754 [label="entropy = 0.0\nsamples = 17\nvalue = [17, 0]", fillcolor="#e58139"] ;
746 -> 754 ;
755 [label="Pecent.hike.expected.in.CTC <= 71.9\nentropy = 0.592\nsamples = 7\nvalue = [1, 6]", fillcolor="#5aade9"] ;
745 -> 755 ;
756 [label="entropy = 0.0\nsamples = 5\nvalue = [0, 5]", fillcolor="#399de5"] ;
755 -> 756 ;
757 [label="Location_Bangalore <= 0.5\nentropy = 1.0\nsamples = 2\nvalue = [1, 1]", fillcolor="#ffffff"] ;
755 -> 757 ;
758 [label="entropy = 0.0\nsamples = 1\nvalue = [1, 0]", fillcolor="#e58139"] ;
757 -> 758 ;
759 [label="entropy = 0.0\nsamples = 1\nvalue = [0, 1]", fillcolor="#399de5"] ;
757 -> 759 ;
760 [label="entropy = 0.0\nsamples = 15\nvalue = [15, 0]", fillcolor="#e58139"] ;
736 -> 760 ;
761 [label="Percent.difference.CTC <= 11.555\nentropy = 0.934\nsamples = 309\nvalue = [201, 108]", fillcolor="#f3c5a3"] ;
731 -> 761 ;
762 [label="LOB_ERS <= 0.5\nentropy = 0.954\nsamples = 288\nvalue = [180, 108]", fillcolor="#f5cdb0"] ;
761 -> 762 ;
763 [label="Candidate.Ref <= 3382022.5\nentropy = 0.914\nsamples = 243\nvalue = [163, 80]", fillcolor="#f2bf9a"] ;
762 -> 763 ;
764 [label="Candidate.Ref <= 3355733.5\nentropy = 0.966\nsamples = 194\nvalue = [118, 76]", fillcolor="#f6d2b9"] ;
763 -> 764 ;
765 [label="Pecent.hike.expected.in.CTC <= 16.335\nentropy = 0.933\nsamples = 178\nvalue = [116, 62]", fillcolor="#f3c4a3"] ;
764 -> 765 ;
766 [label="Age <= 31.0\nentropy = 0.826\nsamples = 27\nvalue = [7, 20]", fillcolor="#7ebfee"] ;
765 -> 766 ;
767 [label="Percent.difference.CTC <= -0.76\nentropy = 0.65\nsamples = 24\nvalue = [4, 20]", fillcolor="#61b1ea"] ;
766 -> 767 ;
768 [label="entropy = 0.0\nsamples = 2\nvalue = [2, 0]", fillcolor="#e58139"] ;
767 -> 768 ;
769 [label="Percent.difference.CTC <= 3.445\nentropy = 0.439\nsamples = 22\nvalue = [2, 20]", fillcolor="#4da7e8"] ;
767 -> 769 ;
770 [label="entropy = 0.0\nsamples = 20\nvalue = [0, 20]", fillcolor="#399de5"] ;
769 -> 770 ;
771 [label="entropy = 0.0\nsamples = 2\nvalue = [2, 0]", fillcolor="#e58139"] ;
769 -> 771 ;
772 [label="entropy = 0.0\nsamples = 3\nvalue = [3, 0]", fillcolor="#e58139"] ;
766 -> 772 ;
773 [label="Percent.hike.offered.in.CTC <= 34.775\nentropy = 0.853\nsamples = 151\nvalue = [109, 42]", fillcolor="#efb285"] ;
765 -> 773 ;
774 [label="Duration.to.accept.offer <= 38.5\nentropy = 0.454\nsamples = 63\nvalue = [57, 6]", fillcolor="#e88e4e"] ;
773 -> 774 ;
775 [label="entropy = 0.0\nsamples = 39\nvalue = [39, 0]", fillcolor="#e58139"] ;
774 -> 775 ;
776 [label="Rex.in.Yrs <= 2.5\nentropy = 0.811\nsamples = 24\nvalue = [18, 6]", fillcolor="#eeab7b"] ;
774 -> 776 ;
777 [label="entropy = 0.0\nsamples = 2\nvalue = [0, 2]", fillcolor="#399de5"] ;
776 -> 777 ;
778 [label="Duration.to.accept.offer <= 50.0\nentropy = 0.684\nsamples = 22\nvalue = [18, 4]", fillcolor="#eb9d65"] ;
776 -> 778 ;
779 [label="entropy = 0.0\nsamples = 13\nvalue = [13, 0]", fillcolor="#e58139"] ;
778 -> 779 ;
780 [label="LOB_BFSI <= 0.5\nentropy = 0.991\nsamples = 9\nvalue = [5, 4]", fillcolor="#fae6d7"] ;
778 -> 780 ;
781 [label="entropy = 0.0\nsamples = 4\nvalue = [4, 0]", fillcolor="#e58139"] ;
780 -> 781 ;
782 [label="Gender_Female <= 0.5\nentropy = 0.722\nsamples = 5\nvalue = [1, 4]", fillcolor="#6ab6ec"] ;
780 -> 782 ;
783 [label="entropy = 0.0\nsamples = 4\nvalue = [0, 4]", fillcolor="#399de5"] ;
782 -> 783 ;
784 [label="entropy = 0.0\nsamples = 1\nvalue = [1, 0]", fillcolor="#e58139"] ;
782 -> 784 ;
785 [label="Candidate.Ref <= 2466054.0\nentropy = 0.976\nsamples = 88\nvalue = [52, 36]", fillcolor="#f7d8c2"] ;
773 -> 785 ;
786 [label="DOJ.Extended_No <= 0.5\nentropy = 0.89\nsamples = 26\nvalue = [8, 18]", fillcolor="#91c9f1"] ;
785 -> 786 ;
787 [label="Candidate.Ref <= 2399279.0\nentropy = 0.946\nsamples = 11\nvalue = [7, 4]", fillcolor="#f4c9aa"] ;
786 -> 787 ;
788 [label="Duration.to.accept.offer <= 51.5\nentropy = 0.544\nsamples = 8\nvalue = [7, 1]", fillcolor="#e99355"] ;
787 -> 788 ;
789 [label="entropy = 0.0\nsamples = 7\nvalue = [7, 0]", fillcolor="#e58139"] ;
788 -> 789 ;
790 [label="entropy = 0.0\nsamples = 1\nvalue = [0, 1]", fillcolor="#399de5"] ;
788 -> 790 ;
791 [label="entropy = 0.0\nsamples = 3\nvalue = [0, 3]", fillcolor="#399de5"] ;
787 -> 791 ;
792 [label="Candidate.Source_Agency <= 0.5\nentropy = 0.353\nsamples = 15\nvalue = [1, 14]", fillcolor="#47a4e7"] ;
786 -> 792 ;
793 [label="entropy = 0.0\nsamples = 13\nvalue = [0, 13]", fillcolor="#399de5"] ;
792 -> 793 ;
794 [label="Pecent.hike.expected.in.CTC <= 41.98\nentropy = 1.0\nsamples = 2\nvalue = [1, 1]", fillcolor="#ffffff"] ;
792 -> 794 ;
795 [label="entropy = 0.0\nsamples = 1\nvalue = [1, 0]", fillcolor="#e58139"] ;
794 -> 795 ;
796 [label="entropy = 0.0\nsamples = 1\nvalue = [0, 1]", fillcolor="#399de5"] ;
794 -> 796 ;
797 [label="Pecent.hike.expected.in.CTC <= 33.975\nentropy = 0.869\nsamples = 62\nvalue = [44, 18]", fillcolor="#f0b58a"] ;
785 -> 797 ;
798 [label="entropy = 0.0\nsamples = 5\nvalue = [0, 5]", fillcolor="#399de5"] ;
797 -> 798 ;
799 [label="Percent.hike.offered.in.CTC <= 34.985\nentropy = 0.775\nsamples = 57\nvalue = [44, 13]", fillcolor="#eda674"] ;
797 -> 799 ;
800 [label="entropy = 0.0\nsamples = 2\nvalue = [0, 2]", fillcolor="#399de5"] ;
799 -> 800 ;
801 [label="Duration.to.accept.offer <= 34.5\nentropy = 0.722\nsamples = 55\nvalue = [44, 11]", fillcolor="#eca06a"] ;
799 -> 801 ;
802 [label="Duration.to.accept.offer <= 27.5\nentropy = 0.918\nsamples = 30\nvalue = [20, 10]", fillcolor="#f2c09c"] ;
801 -> 802 ;
803 [label="LOB_CSMP <= 0.5\nentropy = 0.391\nsamples = 13\nvalue = [12, 1]", fillcolor="#e78c49"] ;
802 -> 803 ;
804 [label="entropy = 0.0\nsamples = 11\nvalue = [11, 0]", fillcolor="#e58139"] ;
803 -> 804 ;
805 [label="Candidate.Source_Direct <= 0.5\nentropy = 1.0\nsamples = 2\nvalue = [1, 1]", fillcolor="#ffffff"] ;
803 -> 805 ;
806 [label="entropy = 0.0\nsamples = 1\nvalue = [0, 1]", fillcolor="#399de5"] ;
805 -> 806 ;
807 [label="entropy = 0.0\nsamples = 1\nvalue = [1, 0]", fillcolor="#e58139"] ;
805 -> 807 ;
808 [label="DOJ.Extended_No <= 0.5\nentropy = 0.998\nsamples = 17\nvalue = [8, 9]", fillcolor="#e9f4fc"] ;
802 -> 808 ;
809 [label="Percent.hike.offered.in.CTC <= 39.665\nentropy = 0.503\nsamples = 9\nvalue = [1, 8]", fillcolor="#52a9e8"] ;
808 -> 809 ;
810 [label="entropy = 0.0\nsamples = 1\nvalue = [1, 0]", fillcolor="#e58139"] ;
809 -> 810 ;
811 [label="entropy = 0.0\nsamples = 8\nvalue = [0, 8]", fillcolor="#399de5"] ;
809 -> 811 ;
812 [label="LOB_EAS <= 0.5\nentropy = 0.544\nsamples = 8\nvalue = [7, 1]", fillcolor="#e99355"] ;
808 -> 812 ;
813 [label="entropy = 0.0\nsamples = 7\nvalue = [7, 0]", fillcolor="#e58139"] ;
812 -> 813 ;
814 [label="entropy = 0.0\nsamples = 1\nvalue = [0, 1]", fillcolor="#399de5"] ;
812 -> 814 ;
815 [label="Percent.hike.offered.in.CTC <= 42.49\nentropy = 0.242\nsamples = 25\nvalue = [24, 1]", fillcolor="#e68641"] ;
801 -> 815 ;
816 [label="Rex.in.Yrs <= 3.5\nentropy = 0.65\nsamples = 6\nvalue = [5, 1]", fillcolor="#ea9a61"] ;
815 -> 816 ;
817 [label="entropy = 0.0\nsamples = 5\nvalue = [5, 0]", fillcolor="#e58139"] ;
816 -> 817 ;
818 [label="entropy = 0.0\nsamples = 1\nvalue = [0, 1]", fillcolor="#399de5"] ;
816 -> 818 ;
819 [label="entropy = 0.0\nsamples = 19\nvalue = [19, 0]", fillcolor="#e58139"] ;
815 -> 819 ;
820 [label="Location_Chennai <= 0.5\nentropy = 0.544\nsamples = 16\nvalue = [2, 14]", fillcolor="#55abe9"] ;
764 -> 820 ;
821 [label="Duration.to.accept.offer <= 39.5\nentropy = 0.353\nsamples = 15\nvalue = [1, 14]", fillcolor="#47a4e7"] ;
820 -> 821 ;
822 [label="entropy = 0.0\nsamples = 9\nvalue = [0, 9]", fillcolor="#399de5"] ;
821 -> 822 ;
823 [label="Candidate.Ref <= 3355823.0\nentropy = 0.65\nsamples = 6\nvalue = [1, 5]", fillcolor="#61b1ea"] ;
821 -> 823 ;
824 [label="entropy = 0.0\nsamples = 5\nvalue = [0, 5]", fillcolor="#399de5"] ;
823 -> 824 ;
825 [label="entropy = 0.0\nsamples = 1\nvalue = [1, 0]", fillcolor="#e58139"] ;
823 -> 825 ;
826 [label="entropy = 0.0\nsamples = 1\nvalue = [1, 0]", fillcolor="#e58139"] ;
820 -> 826 ;
827 [label="Candidate.Ref <= 3491381.0\nentropy = 0.408\nsamples = 49\nvalue = [45, 4]", fillcolor="#e78c4b"] ;
763 -> 827 ;
828 [label="Pecent.hike.expected.in.CTC <= 60.26\nentropy = 0.254\nsamples = 47\nvalue = [45, 2]", fillcolor="#e68742"] ;
827 -> 828 ;
829 [label="entropy = 0.0\nsamples = 43\nvalue = [43, 0]", fillcolor="#e58139"] ;
828 -> 829 ;
830 [label="Notice.period <= 15.0\nentropy = 1.0\nsamples = 4\nvalue = [2, 2]", fillcolor="#ffffff"] ;
828 -> 830 ;
831 [label="entropy = 0.0\nsamples = 2\nvalue = [0, 2]", fillcolor="#399de5"] ;
830 -> 831 ;
832 [label="entropy = 0.0\nsamples = 2\nvalue = [2, 0]", fillcolor="#e58139"] ;
830 -> 832 ;
833 [label="entropy = 0.0\nsamples = 2\nvalue = [0, 2]", fillcolor="#399de5"] ;
827 -> 833 ;
834 [label="Candidate.Ref <= 3035199.5\nentropy = 0.956\nsamples = 45\nvalue = [17, 28]", fillcolor="#b1d8f5"] ;
762 -> 834 ;
835 [label="entropy = 0.0\nsamples = 6\nvalue = [6, 0]", fillcolor="#e58139"] ;
834 -> 835 ;
836 [label="Gender_Male <= 0.5\nentropy = 0.858\nsamples = 39\nvalue = [11, 28]", fillcolor="#87c4ef"] ;
834 -> 836 ;
837 [label="entropy = 0.0\nsamples = 3\nvalue = [3, 0]", fillcolor="#e58139"] ;
836 -> 837 ;
838 [label="Duration.to.accept.offer <= 50.0\nentropy = 0.764\nsamples = 36\nvalue = [8, 28]", fillcolor="#72b9ec"] ;
836 -> 838 ;
839 [label="Percent.difference.CTC <= 2.0\nentropy = 0.672\nsamples = 34\nvalue = [6, 28]", fillcolor="#63b2eb"] ;
838 -> 839 ;
840 [label="Percent.hike.offered.in.CTC <= 51.525\nentropy = 0.48\nsamples = 29\nvalue = [3, 26]", fillcolor="#50a8e8"] ;
839 -> 840 ;
841 [label="entropy = 0.0\nsamples = 16\nvalue = [0, 16]", fillcolor="#399de5"] ;
840 -> 841 ;
842 [label="Candidate.Ref <= 3367896.0\nentropy = 0.779\nsamples = 13\nvalue = [3, 10]", fillcolor="#74baed"] ;
840 -> 842 ;
843 [label="Location_Bangalore <= 0.5\nentropy = 0.439\nsamples = 11\nvalue = [1, 10]", fillcolor="#4da7e8"] ;
842 -> 843 ;
844 [label="entropy = 0.0\nsamples = 10\nvalue = [0, 10]", fillcolor="#399de5"] ;
843 -> 844 ;
845 [label="entropy = 0.0\nsamples = 1\nvalue = [1, 0]", fillcolor="#e58139"] ;
843 -> 845 ;
846 [label="entropy = 0.0\nsamples = 2\nvalue = [2, 0]", fillcolor="#e58139"] ;
842 -> 846 ;
847 [label="Percent.difference.CTC <= 7.88\nentropy = 0.971\nsamples = 5\nvalue = [3, 2]", fillcolor="#f6d5bd"] ;
839 -> 847 ;
848 [label="entropy = 0.0\nsamples = 3\nvalue = [3, 0]", fillcolor="#e58139"] ;
847 -> 848 ;
849 [label="entropy = 0.0\nsamples = 2\nvalue = [0, 2]", fillcolor="#399de5"] ;
847 -> 849 ;
850 [label="entropy = 0.0\nsamples = 2\nvalue = [2, 0]", fillcolor="#e58139"] ;
838 -> 850 ;
851 [label="entropy = 0.0\nsamples = 21\nvalue = [21, 0]", fillcolor="#e58139"] ;
761 -> 851 ;
852 [label="entropy = 0.0\nsamples = 20\nvalue = [20, 0]", fillcolor="#e58139"] ;
538 -> 852 ;
853 [label="entropy = 0.0\nsamples = 24\nvalue = [24, 0]", fillcolor="#e58139"] ;
537 -> 853 ;
854 [label="Pecent.hike.expected.in.CTC <= 4.185\nentropy = 0.994\nsamples = 524\nvalue = [285, 239]", fillcolor="#fbebdf"] ;
536 -> 854 ;
855 [label="Location_Chennai <= 0.5\nentropy = 0.592\nsamples = 35\nvalue = [30, 5]", fillcolor="#e9965a"] ;
854 -> 855 ;
856 [label="entropy = 0.0\nsamples = 17\nvalue = [17, 0]", fillcolor="#e58139"] ;
855 -> 856 ;
857 [label="Duration.to.accept.offer <= 7.5\nentropy = 0.852\nsamples = 18\nvalue = [13, 5]", fillcolor="#efb185"] ;
855 -> 857 ;
858 [label="Percent.hike.offered.in.CTC <= 4.545\nentropy = 0.918\nsamples = 6\nvalue = [2, 4]", fillcolor="#9ccef2"] ;
857 -> 858 ;
859 [label="entropy = 0.0\nsamples = 4\nvalue = [0, 4]", fillcolor="#399de5"] ;
858 -> 859 ;
860 [label="entropy = 0.0\nsamples = 2\nvalue = [2, 0]", fillcolor="#e58139"] ;
858 -> 860 ;
861 [label="Duration.to.accept.offer <= 62.5\nentropy = 0.414\nsamples = 12\nvalue = [11, 1]", fillcolor="#e78c4b"] ;
857 -> 861 ;
862 [label="entropy = 0.0\nsamples = 11\nvalue = [11, 0]", fillcolor="#e58139"] ;
861 -> 862 ;
863 [label="entropy = 0.0\nsamples = 1\nvalue = [0, 1]", fillcolor="#399de5"] ;
861 -> 863 ;
864 [label="Pecent.hike.expected.in.CTC <= 6.375\nentropy = 0.999\nsamples = 489\nvalue = [255, 234]", fillcolor="#fdf5ef"] ;
854 -> 864 ;
865 [label="entropy = 0.0\nsamples = 10\nvalue = [0, 10]", fillcolor="#399de5"] ;
864 -> 865 ;
866 [label="Candidate.Ref <= 3294000.0\nentropy = 0.997\nsamples = 479\nvalue = [255, 224]", fillcolor="#fcf0e7"] ;
864 -> 866 ;
867 [label="Duration.to.accept.offer <= 16.0\nentropy = 0.985\nsamples = 400\nvalue = [229, 171]", fillcolor="#f8dfcd"] ;
866 -> 867 ;
868 [label="Rex.in.Yrs <= 9.5\nentropy = 0.933\nsamples = 215\nvalue = [140, 75]", fillcolor="#f3c4a3"] ;
867 -> 868 ;
869 [label="Location_Noida <= 0.5\nentropy = 0.96\nsamples = 196\nvalue = [121, 75]", fillcolor="#f5cfb4"] ;
868 -> 869 ;
870 [label="Percent.hike.offered.in.CTC <= 84.165\nentropy = 0.993\nsamples = 144\nvalue = [79, 65]", fillcolor="#fae9dc"] ;
869 -> 870 ;
871 [label="Candidate.Ref <= 2357033.0\nentropy = 0.999\nsamples = 136\nvalue = [71, 65]", fillcolor="#fdf4ee"] ;
870 -> 871 ;
872 [label="LOB_AXON <= 0.5\nentropy = 0.65\nsamples = 18\nvalue = [15, 3]", fillcolor="#ea9a61"] ;
871 -> 872 ;
873 [label="LOB_INFRA <= 0.5\nentropy = 0.337\nsamples = 16\nvalue = [15, 1]", fillcolor="#e78946"] ;
872 -> 873 ;
874 [label="entropy = 0.0\nsamples = 13\nvalue = [13, 0]", fillcolor="#e58139"] ;
873 -> 874 ;
875 [label="Percent.difference.CTC <= 2.5\nentropy = 0.918\nsamples = 3\nvalue = [2, 1]", fillcolor="#f2c09c"] ;
873 -> 875 ;
876 [label="entropy = 0.0\nsamples = 2\nvalue = [2, 0]", fillcolor="#e58139"] ;
875 -> 876 ;
877 [label="entropy = 0.0\nsamples = 1\nvalue = [0, 1]", fillcolor="#399de5"] ;
875 -> 877 ;
878 [label="entropy = 0.0\nsamples = 2\nvalue = [0, 2]", fillcolor="#399de5"] ;
872 -> 878 ;
879 [label="LOB_ETS <= 0.5\nentropy = 0.998\nsamples = 118\nvalue = [56, 62]", fillcolor="#ecf6fc"] ;
871 -> 879 ;
880 [label="Pecent.hike.expected.in.CTC <= 53.54\nentropy = 0.998\nsamples = 102\nvalue = [54, 48]", fillcolor="#fcf1e9"] ;
879 -> 880 ;
881 [label="Pecent.hike.expected.in.CTC <= 40.485\nentropy = 0.975\nsamples = 86\nvalue = [51, 35]", fillcolor="#f7d7c1"] ;
880 -> 881 ;
882 [label="Duration.to.accept.offer <= 10.5\nentropy = 1.0\nsamples = 66\nvalue = [33, 33]", fillcolor="#ffffff"] ;
881 -> 882 ;
883 [label="Percent.difference.CTC <= -0.88\nentropy = 0.971\nsamples = 55\nvalue = [22, 33]", fillcolor="#bddef6"] ;
882 -> 883 ;
884 [label="Candidate.Ref <= 2390678.5\nentropy = 0.544\nsamples = 8\nvalue = [7, 1]", fillcolor="#e99355"] ;
883 -> 884 ;
885 [label="entropy = 0.0\nsamples = 1\nvalue = [0, 1]", fillcolor="#399de5"] ;
884 -> 885 ;
886 [label="entropy = 0.0\nsamples = 7\nvalue = [7, 0]", fillcolor="#e58139"] ;
884 -> 886 ;
887 [label="Candidate.Ref <= 3256258.0\nentropy = 0.903\nsamples = 47\nvalue = [15, 32]", fillcolor="#96cbf1"] ;
883 -> 887 ;
888 [label="Duration.to.accept.offer <= 2.5\nentropy = 0.82\nsamples = 43\nvalue = [11, 32]", fillcolor="#7dbfee"] ;
887 -> 888 ;
889 [label="entropy = 0.0\nsamples = 7\nvalue = [0, 7]", fillcolor="#399de5"] ;
888 -> 889 ;
890 [label="Age <= 33.5\nentropy = 0.888\nsamples = 36\nvalue = [11, 25]", fillcolor="#90c8f0"] ;
888 -> 890 ;
891 [label="Pecent.hike.expected.in.CTC <= 25.66\nentropy = 0.758\nsamples = 32\nvalue = [7, 25]", fillcolor="#70b8ec"] ;
890 -> 891 ;
892 [label="Pecent.hike.expected.in.CTC <= 11.485\nentropy = 0.994\nsamples = 11\nvalue = [5, 6]", fillcolor="#deeffb"] ;
891 -> 892 ;
893 [label="entropy = 0.0\nsamples = 6\nvalue = [0, 6]", fillcolor="#399de5"] ;
892 -> 893 ;
894 [label="entropy = 0.0\nsamples = 5\nvalue = [5, 0]", fillcolor="#e58139"] ;
892 -> 894 ;
895 [label="LOB_Healthcare <= 0.5\nentropy = 0.454\nsamples = 21\nvalue = [2, 19]", fillcolor="#4ea7e8"] ;
891 -> 895 ;
896 [label="Pecent.hike.expected.in.CTC <= 36.645\nentropy = 0.286\nsamples = 20\nvalue = [1, 19]", fillcolor="#43a2e6"] ;
895 -> 896 ;
897 [label="entropy = 0.0\nsamples = 18\nvalue = [0, 18]", fillcolor="#399de5"] ;
896 -> 897 ;
898 [label="Rex.in.Yrs <= 6.0\nentropy = 1.0\nsamples = 2\nvalue = [1, 1]", fillcolor="#ffffff"] ;
896 -> 898 ;
899 [label="entropy = 0.0\nsamples = 1\nvalue = [0, 1]", fillcolor="#399de5"] ;
898 -> 899 ;
900 [label="entropy = 0.0\nsamples = 1\nvalue = [1, 0]", fillcolor="#e58139"] ;
898 -> 900 ;
901 [label="entropy = 0.0\nsamples = 1\nvalue = [1, 0]", fillcolor="#e58139"] ;
895 -> 901 ;
902 [label="entropy = 0.0\nsamples = 4\nvalue = [4, 0]", fillcolor="#e58139"] ;
890 -> 902 ;
903 [label="entropy = 0.0\nsamples = 4\nvalue = [4, 0]", fillcolor="#e58139"] ;
887 -> 903 ;
904 [label="entropy = 0.0\nsamples = 11\nvalue = [11, 0]", fillcolor="#e58139"] ;
882 -> 904 ;
905 [label="Location_Hyderabad <= 0.5\nentropy = 0.469\nsamples = 20\nvalue = [18, 2]", fillcolor="#e88f4f"] ;
881 -> 905 ;
906 [label="entropy = 0.0\nsamples = 18\nvalue = [18, 0]", fillcolor="#e58139"] ;
905 -> 906 ;
907 [label="entropy = 0.0\nsamples = 2\nvalue = [0, 2]", fillcolor="#399de5"] ;
905 -> 907 ;
908 [label="Percent.hike.offered.in.CTC <= 63.755\nentropy = 0.696\nsamples = 16\nvalue = [3, 13]", fillcolor="#67b4eb"] ;
880 -> 908 ;
